{"sizes":[33,48,32,16,4,1],"layers":[{"0":{},"1":{},"2":{},"3":{},"4":{},"5":{},"6":{},"7":{},"8":{},"9":{},"10":{},"11":{},"12":{},"13":{},"14":{},"15":{},"16":{},"17":{},"18":{},"19":{},"20":{},"21":{},"22":{},"23":{},"24":{},"25":{},"26":{},"27":{},"28":{},"29":{},"30":{},"31":{},"32":{}},{"0":{"bias":-1.559211015701294,"weights":{"0":-0.35901007056236267,"1":0.01901979185640812,"2":-0.043821319937705994,"3":-0.15515513718128204,"4":0.05113859474658966,"5":0.05604973062872887,"6":0.14636820554733276,"7":0.5929699540138245,"8":0.5562475919723511,"9":0.2432985156774521,"10":0.29137304425239563,"11":0.40567877888679504,"12":-0.20077502727508545,"13":0.034053217619657516,"14":0.30080053210258484,"15":0.2417723536491394,"16":0.2539761960506439,"17":-0.23316676914691925,"18":0.1754622459411621,"19":0.027291741222143173,"20":0.22155451774597168,"21":0.08178175240755081,"22":0.0659269317984581,"23":0.08299874514341354,"24":0.16152484714984894,"25":0.08120261132717133,"26":0.20722165703773499,"27":0.14094330370426178,"28":0.03062107414007187,"29":-0.07215029746294022,"30":0.14863178133964539,"31":-0.1112498790025711,"32":0.261401891708374}},"1":{"bias":0.7722455859184265,"weights":{"0":-0.2455722838640213,"1":0.2166946828365326,"2":-0.06568971276283264,"3":-0.46939706802368164,"4":-0.5124325156211853,"5":-0.37966206669807434,"6":0.035219721496105194,"7":-0.182585671544075,"8":0.09499206393957138,"9":0.27980539202690125,"10":0.15198011696338654,"11":-0.045050248503685,"12":-0.267356812953949,"13":0.10499904304742813,"14":-0.06938111037015915,"15":0.045711737126111984,"16":-0.06219278275966644,"17":0.03754044696688652,"18":-0.13815799355506897,"19":0.027324367314577103,"20":-0.027453579008579254,"21":0.004182135220617056,"22":-0.057212650775909424,"23":-0.06184033304452896,"24":-0.0786307230591774,"25":-0.11485883593559265,"26":-0.043009787797927856,"27":0.01941319741308689,"28":-0.06615816056728363,"29":0.08829159289598465,"30":0.06439799815416336,"31":0.015998223796486855,"32":-0.04699528217315674}},"2":{"bias":-0.1938474476337433,"weights":{"0":-0.11000313609838486,"1":0.018189381808042526,"2":-0.18604013323783875,"3":-0.06435828655958176,"4":-0.14127323031425476,"5":-0.01656961254775524,"6":0.1865103542804718,"7":0.10173050314188004,"8":0.1607995480298996,"9":-0.10830597579479218,"10":-0.004700821358710527,"11":0.12899529933929443,"12":-0.15770937502384186,"13":-0.10951462388038635,"14":0.05948339402675629,"15":-0.16839468479156494,"16":-0.12443134933710098,"17":0.11692590266466141,"18":0.057963959872722626,"19":0.16506798565387726,"20":0.13874180614948273,"21":-0.14548759162425995,"22":0.055145472288131714,"23":-0.17576171457767487,"24":0.0922638475894928,"25":-0.1251012533903122,"26":-0.1511964499950409,"27":-0.16756443679332733,"28":-0.07832330465316772,"29":-0.022503655403852463,"30":-0.16762036085128784,"31":0.0220671147108078,"32":-0.03969636186957359}},"3":{"bias":0.12880511581897736,"weights":{"0":-0.12905475497245789,"1":0.06920725852251053,"2":-0.20093697309494019,"3":-0.09198936820030212,"4":0.10777256637811661,"5":0.13526853919029236,"6":0.07865320891141891,"7":-0.10413233190774918,"8":0.18195419013500214,"9":-0.022628653794527054,"10":-0.09950331598520279,"11":-0.06953424960374832,"12":-0.05208456516265869,"13":-0.08168233186006546,"14":-0.04130693897604942,"15":-0.1713528037071228,"16":-0.11837340146303177,"17":-0.16548171639442444,"18":-0.19271992146968842,"19":-0.022864803671836853,"20":0.09114731103181839,"21":-0.15158304572105408,"22":0.07254984974861145,"23":0.11196419596672058,"24":-0.011466625146567822,"25":-0.012495528906583786,"26":0.028278496116399765,"27":-0.13092464208602905,"28":0.14309802651405334,"29":-0.12174906581640244,"30":0.19431689381599426,"31":0.08899283409118652,"32":-0.12878461182117462}},"4":{"bias":-0.044526781886816025,"weights":{"0":0.1472618281841278,"1":-0.007957289926707745,"2":-0.05165557935833931,"3":-0.05876028537750244,"4":-0.09899371862411499,"5":-0.1802629977464676,"6":0.056226156651973724,"7":-0.03777838870882988,"8":0.025048986077308655,"9":-0.036684244871139526,"10":0.09177366644144058,"11":0.17477145791053772,"12":-0.16600525379180908,"13":0.05396242067217827,"14":-0.16199848055839539,"15":0.005038129165768623,"16":0.1607624739408493,"17":0.166420578956604,"18":-0.15899543464183807,"19":-0.06406566500663757,"20":-0.14030110836029053,"21":0.12075565755367279,"22":0.003790684277191758,"23":-0.15426677465438843,"24":-0.17827165126800537,"25":-0.1476539969444275,"26":-0.0989643856883049,"27":-0.05775517225265503,"28":-0.022276096045970917,"29":-0.050209738314151764,"30":0.11490540206432343,"31":-0.03381338343024254,"32":-0.1118580549955368}},"5":{"bias":-0.162643164396286,"weights":{"0":0.013151590712368488,"1":0.081830695271492,"2":0.061181146651506424,"3":0.04031107574701309,"4":-0.18816575407981873,"5":-0.17642280459403992,"6":0.07954434305429459,"7":-0.021526535972952843,"8":0.07166501879692078,"9":-0.14752230048179626,"10":0.13343751430511475,"11":-0.12387405335903168,"12":-0.12032142281532288,"13":-0.09906724840402603,"14":0.09766077250242233,"15":0.12121859192848206,"16":-0.18205973505973816,"17":-0.0621013343334198,"18":0.011669198051095009,"19":-0.1433427780866623,"20":-0.15403881669044495,"21":-0.060314685106277466,"22":0.006035699043422937,"23":0.13632503151893616,"24":-0.07519468665122986,"25":0.13829900324344635,"26":-0.1435118317604065,"27":0.014659903943538666,"28":-0.14192649722099304,"29":-0.13781674206256866,"30":0.1159689798951149,"31":0.051638856530189514,"32":-0.07946232706308365}},"6":{"bias":-2.9050910472869873,"weights":{"0":-0.37491294741630554,"1":0.15750652551651,"2":0.17503982782363892,"3":0.13642200827598572,"4":0.3324619233608246,"5":0.5367851853370667,"6":0.37480902671813965,"7":0.2968482971191406,"8":0.27028167247772217,"9":0.2609751522541046,"10":0.35269439220428467,"11":0.29369890689849854,"12":0.5802876353263855,"13":0.4134649336338043,"14":0.3464774489402771,"15":0.1692410409450531,"16":0.18024790287017822,"17":0.06045576557517052,"18":0.02380630560219288,"19":-0.0037208509165793657,"20":0.05064160376787186,"21":0.20705321431159973,"22":-0.03419436141848564,"23":0.21314546465873718,"24":-0.023468516767024994,"25":0.30210810899734497,"26":0.10949703305959702,"27":0.08544037491083145,"28":0.043120916932821274,"29":0.37476029992103577,"30":0.2542968988418579,"31":0.21449138224124908,"32":0.345721036195755}},"7":{"bias":0.14143088459968567,"weights":{"0":-0.1501694619655609,"1":-0.09028497338294983,"2":-0.025816570967435837,"3":-0.005581213161349297,"4":-0.17502525448799133,"5":-0.03456544131040573,"6":0.12395511567592621,"7":0.06604621559381485,"8":0.021830733865499496,"9":-0.031215542927384377,"10":0.08349441736936569,"11":-0.17968861758708954,"12":-0.03373531624674797,"13":-0.056582462042570114,"14":0.12515351176261902,"15":-0.18018528819084167,"16":-0.11453308165073395,"17":-0.034809939563274384,"18":0.1963692158460617,"19":-0.09507216513156891,"20":-0.15938715636730194,"21":0.04173754155635834,"22":-0.11432040482759476,"23":-0.05080575495958328,"24":-0.15977798402309418,"25":0.10016617923974991,"26":-0.11349230259656906,"27":-0.19433502852916718,"28":-0.01155888568609953,"29":0.17308256030082703,"30":0.16901829838752747,"31":0.026395557448267937,"32":0.03099224716424942}},"8":{"bias":-0.8281857371330261,"weights":{"0":-0.0036506059113889933,"1":-0.056909315288066864,"2":-0.1207919642329216,"3":0.022006914019584656,"4":-0.05020953342318535,"5":0.467600017786026,"6":0.259300172328949,"7":0.13613691926002502,"8":0.18206365406513214,"9":0.40997815132141113,"10":0.32476991415023804,"11":0.1566712111234665,"12":0.5035568475723267,"13":0.15551811456680298,"14":0.2726786136627197,"15":0.3062593340873718,"16":0.13829684257507324,"17":-0.03050471469759941,"18":-0.0655871331691742,"19":0.018604286015033722,"20":0.15298542380332947,"21":-0.08611172437667847,"22":-0.041340138763189316,"23":0.05244816839694977,"24":-0.311821848154068,"25":-0.1307290941476822,"26":-0.034707020968198776,"27":-0.047403812408447266,"28":-0.1780688613653183,"29":0.005704128183424473,"30":-0.05079140141606331,"31":-0.053509004414081573,"32":-0.05163956806063652}},"9":{"bias":0.0445382334291935,"weights":{"0":-0.0063932896591722965,"1":-0.07174114137887955,"2":-0.11125724017620087,"3":-0.12025411427021027,"4":0.488283634185791,"5":-0.12937849760055542,"6":0.06375981867313385,"7":-0.12999410927295685,"8":0.2729184627532959,"9":-0.24547655880451202,"10":-0.13642287254333496,"11":0.06955684721469879,"12":0.2925039231777191,"13":0.11976636201143265,"14":0.12857839465141296,"15":-0.10633832216262817,"16":0.1643713414669037,"17":-0.18143165111541748,"18":-0.045926935970783234,"19":-0.1174340471625328,"20":0.06058507412672043,"21":-0.04625396430492401,"22":-0.10797278583049774,"23":-0.013199001550674438,"24":0.10639799386262894,"25":-0.11024261265993118,"26":-0.12514165043830872,"27":0.11514581739902496,"28":-0.005391253158450127,"29":-0.1063486784696579,"30":-0.06887952238321304,"31":-0.12759724259376526,"32":0.13364779949188232}},"10":{"bias":-4.603848457336426,"weights":{"0":-0.7876604795455933,"1":0.21626843512058258,"2":0.32492169737815857,"3":0.6841756105422974,"4":0.2985098958015442,"5":0.3452939987182617,"6":0.41013047099113464,"7":0.40368181467056274,"8":0.2540121078491211,"9":0.37141039967536926,"10":0.16327930986881256,"11":0.2520207464694977,"12":0.5132835507392883,"13":0.5382157564163208,"14":0.34806525707244873,"15":0.20530173182487488,"16":0.35815441608428955,"17":0.37204837799072266,"18":0.29428061842918396,"19":0.3858019709587097,"20":0.5625535845756531,"21":0.15317147970199585,"22":0.32316556572914124,"23":0.42108389735221863,"24":0.3952615559101105,"25":0.39252322912216187,"26":0.18372254073619843,"27":0.4889589250087738,"28":0.1888091266155243,"29":0.31720173358917236,"30":0.4222477674484253,"31":0.60880047082901,"32":0.2909291684627533}},"11":{"bias":2.4112837314605713,"weights":{"0":-0.027305960655212402,"1":-1.4105030298233032,"2":-1.8267264366149902,"3":-0.45018497109413147,"4":-0.20797042548656464,"5":-0.37746092677116394,"6":-0.1909300535917282,"7":-0.2753726541996002,"8":0.05433543026447296,"9":0.250692754983902,"10":-0.18654118478298187,"11":0.12403739243745804,"12":-0.35126855969429016,"13":0.2641931176185608,"14":-0.0679488554596901,"15":0.17337127029895782,"16":0.24043647944927216,"17":0.09151546657085419,"18":0.12902824580669403,"19":-0.023204410448670387,"20":0.04590308293700218,"21":-0.06915838271379471,"22":0.25190800428390503,"23":-0.025827467441558838,"24":-0.05298885703086853,"25":-0.007839018478989601,"26":-0.1639738380908966,"27":-0.15452070534229279,"28":-0.04686090350151062,"29":-0.07683056592941284,"30":-0.2574157118797302,"31":-0.2288385033607483,"32":-0.16402046382427216}},"12":{"bias":-1.786329984664917,"weights":{"0":-0.4805043935775757,"1":0.06243867427110672,"2":0.05511820316314697,"3":0.08730557560920715,"4":0.037173524498939514,"5":0.10477636754512787,"6":0.06107361242175102,"7":-0.09072377532720566,"8":0.16026213765144348,"9":0.08684355765581131,"10":0.1368328481912613,"11":0.30318257212638855,"12":0.028380729258060455,"13":0.17066368460655212,"14":0.03914790600538254,"15":0.07536030560731888,"16":0.2353423535823822,"17":0.09846115112304688,"18":0.2559675872325897,"19":0.1170010045170784,"20":0.23371809720993042,"21":-0.05697747319936752,"22":0.22082166373729706,"23":0.18173830211162567,"24":0.01922830007970333,"25":0.12052629888057709,"26":0.25455135107040405,"27":0.1663830429315567,"28":0.9757726788520813,"29":0.10860241949558258,"30":0.30153408646583557,"31":0.15497919917106628,"32":0.05724835768342018}},"13":{"bias":-0.09757502377033234,"weights":{"0":-0.116590216755867,"1":-0.019689740613102913,"2":-0.06833319365978241,"3":-0.05804235860705376,"4":0.06485169380903244,"5":0.0035878869239240885,"6":-0.09348724037408829,"7":-0.149454265832901,"8":-0.18246228992938995,"9":0.15672148764133453,"10":-0.026326488703489304,"11":0.10981541872024536,"12":-0.16043131053447723,"13":0.14550724625587463,"14":-0.08347479999065399,"15":0.0028296036180108786,"16":0.031156985089182854,"17":-0.07983768731355667,"18":-0.0705309584736824,"19":-0.116157665848732,"20":0.1821627914905548,"21":-0.19101697206497192,"22":-0.19724488258361816,"23":-0.025859860703349113,"24":0.029555415734648705,"25":0.18577365577220917,"26":0.06799673289060593,"27":-0.11242669075727463,"28":0.12150108069181442,"29":0.14002706110477448,"30":-0.1960926502943039,"31":0.003946988377720118,"32":-0.024032214656472206}},"14":{"bias":-1.8819758892059326,"weights":{"0":-0.422227144241333,"1":0.14680208265781403,"2":0.0525447279214859,"3":0.055929914116859436,"4":0.04415321350097656,"5":0.26149922609329224,"6":0.2502126395702362,"7":0.28309759497642517,"8":-0.03459572792053223,"9":0.19984981417655945,"10":0.019286293536424637,"11":0.24138425290584564,"12":0.7944600582122803,"13":0.15968579053878784,"14":0.3316907286643982,"15":0.238787442445755,"16":0.300871878862381,"17":0.08131284266710281,"18":0.18124406039714813,"19":0.21812224388122559,"20":0.15136860311031342,"21":0.02485523745417595,"22":0.15873394906520844,"23":0.12759967148303986,"24":0.12739458680152893,"25":0.21057845652103424,"26":0.2055654078722,"27":0.18212270736694336,"28":0.12582701444625854,"29":0.09550389647483826,"30":-0.3347281217575073,"31":0.138016939163208,"32":-0.10855423659086227}},"15":{"bias":-0.10347713530063629,"weights":{"0":-0.08350896090269089,"1":0.04340554028749466,"2":0.12376207113265991,"3":-0.10074852406978607,"4":-0.07197482138872147,"5":0.15445742011070251,"6":-0.1909010112285614,"7":0.1238579973578453,"8":0.17943806946277618,"9":0.12289421260356903,"10":0.1844886690378189,"11":-0.003660123096778989,"12":0.022081509232521057,"13":-0.07319137454032898,"14":0.15658065676689148,"15":-0.14865699410438538,"16":-0.1438201516866684,"17":0.05485557019710541,"18":-0.031924210488796234,"19":0.07283230125904083,"20":-0.014513523317873478,"21":-0.11755102872848511,"22":-0.08816538751125336,"23":-0.1975429803133011,"24":-0.10145583748817444,"25":0.062073975801467896,"26":-0.13020005822181702,"27":-0.1013224646449089,"28":-0.11690650135278702,"29":0.06246810778975487,"30":-0.11203595995903015,"31":0.02088421955704689,"32":0.10765175521373749}},"16":{"bias":-0.004231695551425219,"weights":{"0":-0.10095788538455963,"1":0.13816097378730774,"2":0.14989498257637024,"3":-0.04823717102408409,"4":0.08397343754768372,"5":-0.15487366914749146,"6":0.01541818119585514,"7":0.13008835911750793,"8":0.18700113892555237,"9":-0.17215539515018463,"10":-0.017166167497634888,"11":-0.11777152121067047,"12":-0.00210215849801898,"13":0.1646997481584549,"14":-0.13506393134593964,"15":-0.1164441630244255,"16":-0.12388542294502258,"17":-0.14122776687145233,"18":0.023979393765330315,"19":-0.16686075925827026,"20":-0.14223985373973846,"21":-0.043225232511758804,"22":-0.016144834458827972,"23":-0.13067154586315155,"24":-0.11520939320325851,"25":0.07245203107595444,"26":-0.1313331425189972,"27":0.19897609949111938,"28":0.11265873163938522,"29":0.14026056230068207,"30":-0.06778329610824585,"31":-0.06800773739814758,"32":0.026745110750198364}},"17":{"bias":0.12422344088554382,"weights":{"0":0.02090601809322834,"1":0.019113430753350258,"2":0.004778022412210703,"3":-0.042814407497644424,"4":0.19407522678375244,"5":0.060315150767564774,"6":-0.06032736599445343,"7":-0.15323618054389954,"8":0.10370559990406036,"9":0.13265486061573029,"10":0.0546470545232296,"11":0.05356820672750473,"12":-0.09768657386302948,"13":-0.18446531891822815,"14":-0.07056282460689545,"15":0.17954672873020172,"16":0.17603491246700287,"17":-0.11827879399061203,"18":-0.153101846575737,"19":-0.05625808611512184,"20":-0.09243886172771454,"21":-0.14301501214504242,"22":-0.1991536021232605,"23":-0.17467723786830902,"24":-0.16178224980831146,"25":-0.054896414279937744,"26":-0.019325455650687218,"27":-0.07219859957695007,"28":0.006001373287290335,"29":-0.20057448744773865,"30":0.18451377749443054,"31":0.19389235973358154,"32":-0.11792661249637604}},"18":{"bias":-1.2973074913024902,"weights":{"0":-0.02291116863489151,"1":0.10061068832874298,"2":0.09961973130702972,"3":0.13514184951782227,"4":0.042459793388843536,"5":0.052995115518569946,"6":0.05795535817742348,"7":0.08397483825683594,"8":0.015929924324154854,"9":0.02272946573793888,"10":-0.06902209669351578,"11":-0.29275619983673096,"12":-0.0594358965754509,"13":0.010403988882899284,"14":0.05174756050109863,"15":-0.09245894104242325,"16":-0.10350330173969269,"17":-0.0976942852139473,"18":-0.0685545951128006,"19":0.025679660961031914,"20":-0.23525744676589966,"21":0.23664072155952454,"22":-0.13787047564983368,"23":0.11714259535074234,"24":-0.45640310645103455,"25":-0.03827492892742157,"26":0.30597221851348877,"27":0.194737046957016,"28":0.3881465196609497,"29":0.1349460482597351,"30":0.5115463137626648,"31":1.514023780822754,"32":0.061091382056474686}},"19":{"bias":-1.0728791952133179,"weights":{"0":-0.019086139276623726,"1":-0.00856274738907814,"2":-0.05796681344509125,"3":0.06440100073814392,"4":0.06141591817140579,"5":-0.02320854179561138,"6":-0.05066099762916565,"7":-0.10335950553417206,"8":-0.11559204757213593,"9":0.06502621620893478,"10":0.10538989305496216,"11":0.0791601613163948,"12":0.051221586763858795,"13":-0.08452686667442322,"14":0.04620521143078804,"15":-0.08122007548809052,"16":-0.06555435061454773,"17":-0.20488843321800232,"18":-0.036570463329553604,"19":0.03753282502293587,"20":0.018394364044070244,"21":0.20125235617160797,"22":-0.00038576440420001745,"23":0.030755706131458282,"24":0.03059125691652298,"25":-0.0908380001783371,"26":0.14577585458755493,"27":0.18640314042568207,"28":0.45029571652412415,"29":0.584575355052948,"30":-0.01453310064971447,"31":-0.036317795515060425,"32":1.084187388420105}},"20":{"bias":0.058324266225099564,"weights":{"0":0.45093703269958496,"1":0.028136292472481728,"2":-0.06678096950054169,"3":-0.1335265040397644,"4":-0.05489487573504448,"5":-0.04999007284641266,"6":0.16459721326828003,"7":0.10304652899503708,"8":0.06793798506259918,"9":0.24142560362815857,"10":-0.05734040588140488,"11":0.08293094485998154,"12":0.06498489528894424,"13":-0.021884791553020477,"14":-0.19451597332954407,"15":0.09656660258769989,"16":0.03913380578160286,"17":-0.11683579534292221,"18":0.007934796623885632,"19":0.0872156023979187,"20":-0.09058071672916412,"21":-0.24003934860229492,"22":-0.1036202684044838,"23":-0.08594901859760284,"24":-0.06667588651180267,"25":-0.20002414286136627,"26":-0.2127082645893097,"27":-0.06127132475376129,"28":0.10369947552680969,"29":-0.043264828622341156,"30":0.10529756546020508,"31":0.04692530632019043,"32":0.06437022238969803}},"21":{"bias":-1.8444695472717285,"weights":{"0":-0.042120907455682755,"1":0.009498397819697857,"2":0.14119715988636017,"3":-0.049235183745622635,"4":0.11198723316192627,"5":0.025433791801333427,"6":0.20242418348789215,"7":-0.08289536833763123,"8":0.20967929065227509,"9":0.03971988335251808,"10":0.11850397288799286,"11":0.10303308069705963,"12":0.18248218297958374,"13":0.3819758892059326,"14":0.038462910801172256,"15":0.12667754292488098,"16":0.032124292105436325,"17":0.32893964648246765,"18":0.2898446321487427,"19":0.2577810287475586,"20":0.3945850431919098,"21":0.04662710428237915,"22":0.24300913512706757,"23":0.35659053921699524,"24":0.15903064608573914,"25":0.05984002724289894,"26":-0.1700408160686493,"27":0.3865465223789215,"28":0.3123781681060791,"29":-0.17630907893180847,"30":-0.15498259663581848,"31":-0.22405417263507843,"32":0.20854626595973969}},"22":{"bias":-0.480742484331131,"weights":{"0":-0.2281522899866104,"1":0.011569222435355186,"2":-0.07220356166362762,"3":-0.09392597526311874,"4":0.011820109561085701,"5":0.10269990563392639,"6":-0.09117583185434341,"7":-0.031124297529459,"8":0.14916157722473145,"9":0.21892057359218597,"10":0.23752565681934357,"11":0.2968171536922455,"12":0.054933883249759674,"13":0.14752988517284393,"14":-0.07466329634189606,"15":0.33511796593666077,"16":0.39072737097740173,"17":0.09615655988454819,"18":0.14712420105934143,"19":0.1254177987575531,"20":-0.008938529528677464,"21":-0.15883734822273254,"22":0.19464996457099915,"23":0.15172280371189117,"24":-0.005508945789188147,"25":0.17491042613983154,"26":0.05095129832625389,"27":-0.17527905106544495,"28":-0.07807126641273499,"29":0.08318278193473816,"30":-0.37485039234161377,"31":-0.10028430074453354,"32":-0.4317859709262848}},"23":{"bias":-4.578175067901611,"weights":{"0":-0.9607527256011963,"1":0.08075036853551865,"2":0.18853846192359924,"3":0.05216659605503082,"4":0.23858623206615448,"5":0.12810386717319489,"6":0.16342216730117798,"7":0.15916943550109863,"8":0.23469685018062592,"9":0.4596785604953766,"10":0.35706186294555664,"11":0.33150023221969604,"12":0.3804769814014435,"13":0.4788605272769928,"14":0.2521108090877533,"15":0.46062952280044556,"16":0.2735072076320648,"17":0.5185585618019104,"18":0.36697444319725037,"19":0.5231052041053772,"20":0.4838251769542694,"21":0.6499966382980347,"22":0.5183772444725037,"23":0.23152698576450348,"24":0.4604678750038147,"25":0.5154425501823425,"26":0.4695158302783966,"27":0.46706098318099976,"28":0.25306248664855957,"29":0.4939076900482178,"30":0.33873143792152405,"31":0.5116320252418518,"32":0.44703635573387146}},"24":{"bias":-0.9313338398933411,"weights":{"0":0.1244301050901413,"1":-0.017219040542840958,"2":0.11032741516828537,"3":0.059109386056661606,"4":0.04186299070715904,"5":0.05513462424278259,"6":0.16261307895183563,"7":-0.07696833461523056,"8":0.20473439991474152,"9":-0.06463643163442612,"10":-0.10190946608781815,"11":0.05630224198102951,"12":-0.07802916318178177,"13":0.22034524381160736,"14":-0.024391112849116325,"15":0.07921189069747925,"16":0.2048514187335968,"17":-0.08432310074567795,"18":0.0729990154504776,"19":0.14846518635749817,"20":0.1833263337612152,"21":0.03326551243662834,"22":0.19469910860061646,"23":-0.08558028936386108,"24":0.008206458762288094,"25":0.08175864070653915,"26":0.20436495542526245,"27":0.1002722904086113,"28":0.11718209087848663,"29":-0.10312023758888245,"30":0.09715905785560608,"31":0.3257909417152405,"32":-0.08254645764827728}},"25":{"bias":-2.4297614097595215,"weights":{"0":-0.6110188364982605,"1":0.20281925797462463,"2":0.043478768318891525,"3":0.026002192869782448,"4":0.06487694382667542,"5":0.12216212600469589,"6":0.26050448417663574,"7":0.18061202764511108,"8":0.3544158637523651,"9":0.09658551216125488,"10":0.07641245424747467,"11":0.12289316207170486,"12":0.15846440196037292,"13":0.26632899045944214,"14":0.06506120413541794,"15":0.03832467272877693,"16":0.25709372758865356,"17":0.2949622571468353,"18":0.27962881326675415,"19":0.28981655836105347,"20":0.2576224207878113,"21":0.6733806133270264,"22":0.029492972418665886,"23":0.2658993899822235,"24":0.017929278314113617,"25":0.08440481126308441,"26":0.20566019415855408,"27":0.07757294178009033,"28":0.09149529784917831,"29":0.64509117603302,"30":0.3413940668106079,"31":0.16296672821044922,"32":0.13528473675251007}},"26":{"bias":0.025785118341445923,"weights":{"0":0.08150129020214081,"1":0.1282767653465271,"2":0.08525417745113373,"3":-0.11580859124660492,"4":0.10605251789093018,"5":-0.041753869503736496,"6":-0.04545481875538826,"7":-0.018427595496177673,"8":-0.037124019116163254,"9":0.08891091495752335,"10":-0.14438284933567047,"11":-0.20962581038475037,"12":-0.008606020361185074,"13":-0.07890046387910843,"14":0.10669901967048645,"15":-0.13868185877799988,"16":0.037998270243406296,"17":0.10479503124952316,"18":0.1499326080083847,"19":0.031400423496961594,"20":0.10348201543092728,"21":-0.10947097092866898,"22":-0.04737101495265961,"23":0.054309066385030746,"24":0.1768995225429535,"25":-0.2079898566007614,"26":-0.1303274929523468,"27":0.0805133730173111,"28":-0.11730287224054337,"29":-0.11978138238191605,"30":0.03239654004573822,"31":-0.15016208589076996,"32":-0.14097821712493896}},"27":{"bias":-0.039680853486061096,"weights":{"0":0.17279893159866333,"1":-0.05710495635867119,"2":-0.1555471420288086,"3":0.06642568856477737,"4":-0.13341085612773895,"5":-0.1297750025987625,"6":-0.07736435532569885,"7":0.08633050322532654,"8":0.15275491774082184,"9":0.16548065841197968,"10":-0.0639963448047638,"11":-0.1183282807469368,"12":-0.17372694611549377,"13":-0.08029624074697495,"14":0.061257313936948776,"15":0.0412835031747818,"16":-0.19260796904563904,"17":0.15500210225582123,"18":0.11212484538555145,"19":0.06252012401819229,"20":-0.047534000128507614,"21":-0.27173537015914917,"22":0.055956948548555374,"23":0.2242262065410614,"24":0.1557454764842987,"25":0.10874685645103455,"26":0.053682733327150345,"27":-0.06935778260231018,"28":-0.025014691054821014,"29":0.17534343898296356,"30":-0.04141726344823837,"31":-0.09733698517084122,"32":-0.15536139905452728}},"28":{"bias":-1.7760568857192993,"weights":{"0":-0.550403356552124,"1":0.15093642473220825,"2":0.06514140218496323,"3":0.14340418577194214,"4":0.14227868616580963,"5":0.1798602193593979,"6":0.18782992660999298,"7":0.10828948020935059,"8":0.15620261430740356,"9":0.1513410210609436,"10":0.20852495729923248,"11":0.10474126040935516,"12":-0.06489626318216324,"13":0.2722438871860504,"14":0.04010908305644989,"15":0.14581449329853058,"16":0.0777149349451065,"17":0.1744903028011322,"18":0.1337536722421646,"19":0.11270301043987274,"20":0.06575790047645569,"21":0.39594927430152893,"22":-0.013769613578915596,"23":-0.08731524646282196,"24":0.45200252532958984,"25":0.2349616438150406,"26":0.11595315486192703,"27":0.05798759311437607,"28":-0.08537250012159348,"29":-0.28211402893066406,"30":0.5202138423919678,"31":0.3059665262699127,"32":0.4364897310733795}},"29":{"bias":-0.5601030588150024,"weights":{"0":0.6107788681983948,"1":-0.05689530447125435,"2":-0.15716984868049622,"3":-0.18346823751926422,"4":0.002935882192105055,"5":0.36616113781929016,"6":0.03732549026608467,"7":0.18195800483226776,"8":0.25949856638908386,"9":0.14500190317630768,"10":0.13567472994327545,"11":0.3199215531349182,"12":-0.03664891794323921,"13":0.20026090741157532,"14":0.2401394546031952,"15":0.3118322193622589,"16":0.25036507844924927,"17":0.3440731465816498,"18":0.39192643761634827,"19":0.013653854839503765,"20":0.15324667096138,"21":0.008902032859623432,"22":0.3638444244861603,"23":0.007492325734347105,"24":0.21941415965557098,"25":-0.0021253901068121195,"26":-0.23871685564517975,"27":-0.04970460757613182,"28":-0.09980498999357224,"29":0.0678982138633728,"30":-0.47021588683128357,"31":-0.7195082306861877,"32":-0.5636311769485474}},"30":{"bias":-0.7381309866905212,"weights":{"0":-0.28330275416374207,"1":0.21972036361694336,"2":-0.05175746604800224,"3":0.14677520096302032,"4":-0.012098542414605618,"5":-0.09496983140707016,"6":-0.06367572396993637,"7":0.027284543961286545,"8":0.212323859333992,"9":0.003960930742323399,"10":0.17855247855186462,"11":0.039488956332206726,"12":-0.06682760268449783,"13":0.14742286503314972,"14":-0.0043339841067790985,"15":-0.12149125337600708,"16":-0.16680043935775757,"17":0.09719763696193695,"18":0.009180296212434769,"19":0.07625003159046173,"20":0.05180332437157631,"21":-0.04944217577576637,"22":0.20428091287612915,"23":0.09775765985250473,"24":0.06447119265794754,"25":-0.03911987692117691,"26":0.0318821519613266,"27":0.17603158950805664,"28":0.015775712206959724,"29":0.19236068427562714,"30":0.27077803015708923,"31":0.12578736245632172,"32":-0.06882306188344955}},"31":{"bias":0.4727964997291565,"weights":{"0":0.648516058921814,"1":-0.16416974365711212,"2":-0.0067670345306396484,"3":-0.07528594136238098,"4":0.12382921576499939,"5":-0.024879438802599907,"6":-0.1282690167427063,"7":0.017628222703933716,"8":0.05544586852192879,"9":0.05555112659931183,"10":0.1029198169708252,"11":-0.12430386245250702,"12":0.04138642176985741,"13":0.07487104088068008,"14":-0.15817932784557343,"15":-0.08994068950414658,"16":0.21274150907993317,"17":-0.01901703141629696,"18":-0.28559961915016174,"19":-0.11330357939004898,"20":-0.09882888197898865,"21":0.24313576519489288,"22":0.12533052265644073,"23":-0.07427115738391876,"24":-0.12519413232803345,"25":-0.03841641917824745,"26":0.03266609087586403,"27":-0.15824510157108307,"28":-0.4977637529373169,"29":-0.10231229662895203,"30":-0.24564118683338165,"31":-0.16586852073669434,"32":-0.26452067494392395}},"32":{"bias":2.809109926223755,"weights":{"0":0.019123755395412445,"1":-0.10266678035259247,"2":-0.2710583508014679,"3":-0.21859516203403473,"4":-0.3738318383693695,"5":0.11955289542675018,"6":-0.2044827789068222,"7":-0.24779321253299713,"8":-0.07823009788990021,"9":-0.38083282113075256,"10":-0.0704549252986908,"11":-0.12924911081790924,"12":-0.1211443692445755,"13":0.04377800598740578,"14":0.06106342002749443,"15":-0.056761786341667175,"16":0.2666665017604828,"17":-0.3831425905227661,"18":-0.27867427468299866,"19":-0.2847158908843994,"20":0.028472542762756348,"21":-0.06441434472799301,"22":-0.30981263518333435,"23":-0.4322880506515503,"24":-0.18894541263580322,"25":-0.5632610321044922,"26":-0.9188746809959412,"27":-0.2109857052564621,"28":-0.11178494244813919,"29":-0.060917917639017105,"30":0.14139781892299652,"31":0.06429514288902283,"32":-0.08573964983224869}},"33":{"bias":0.008625853806734085,"weights":{"0":0.09096476435661316,"1":-0.13246332108974457,"2":0.1518574357032776,"3":0.049725815653800964,"4":0.06504733860492706,"5":0.040582381188869476,"6":0.10466012358665466,"7":-0.07956836372613907,"8":-0.15546740591526031,"9":-0.08121667057275772,"10":-0.0167457927018404,"11":-0.1884995549917221,"12":0.17245402932167053,"13":0.17014294862747192,"14":0.03489568457007408,"15":0.08729080855846405,"16":-0.03231193125247955,"17":0.1956121325492859,"18":-0.1528385430574417,"19":-0.19140170514583588,"20":0.14461880922317505,"21":0.10707518458366394,"22":0.002521294401958585,"23":-0.20480476319789886,"24":0.06187187507748604,"25":-0.08704354614019394,"26":-0.08753819018602371,"27":-0.22772572934627533,"28":0.020563803613185883,"29":-0.20846757292747498,"30":0.09474743902683258,"31":0.03458327427506447,"32":0.02133345790207386}},"34":{"bias":-0.013622218742966652,"weights":{"0":-0.12192531675100327,"1":-0.19230030477046967,"2":0.19581274688243866,"3":-0.1401049792766571,"4":0.21748720109462738,"5":-0.0447348989546299,"6":-0.04072942957282066,"7":-0.055867746472358704,"8":0.09468819946050644,"9":-0.1651952862739563,"10":0.17243711650371552,"11":0.14310896396636963,"12":0.294673353433609,"13":0.13032788038253784,"14":-0.021195588633418083,"15":-0.06375075876712799,"16":-0.1384318768978119,"17":0.11721159517765045,"18":-0.02097341977059841,"19":0.10838361084461212,"20":0.182313933968544,"21":-0.08699189871549606,"22":-0.1626170426607132,"23":-0.043340615928173065,"24":0.18168410658836365,"25":-0.13150665163993835,"26":-0.16428722441196442,"27":0.008571512065827847,"28":-0.06701478362083435,"29":-0.05105257406830788,"30":0.0747508853673935,"31":-0.1273922473192215,"32":-0.12357919663190842}},"35":{"bias":0.08460692316293716,"weights":{"0":-0.10930822789669037,"1":0.019457563757896423,"2":-0.0913420245051384,"3":-0.11340351402759552,"4":-0.020810985937714577,"5":0.04286002367734909,"6":-0.1470266878604889,"7":-0.09858131408691406,"8":0.0898870900273323,"9":-0.04814745858311653,"10":-0.17746354639530182,"11":0.051358260214328766,"12":-0.17805302143096924,"13":-0.11588381230831146,"14":-0.09205333143472672,"15":-0.07218441367149353,"16":0.01701863296329975,"17":-0.1458011120557785,"18":-0.12834560871124268,"19":-0.05632227286696434,"20":0.12289150804281235,"21":0.10609547048807144,"22":0.12085803598165512,"23":0.04183008894324303,"24":-0.10843813419342041,"25":0.030764589086174965,"26":0.019552523270249367,"27":-0.13122080266475677,"28":-0.015060193836688995,"29":0.1728709489107132,"30":-0.14992214739322662,"31":0.07759197056293488,"32":0.026441240683197975}},"36":{"bias":0.13565552234649658,"weights":{"0":-0.19702564179897308,"1":-0.1010742038488388,"2":0.00320577435195446,"3":-0.048145826905965805,"4":0.014351834543049335,"5":0.11234154552221298,"6":0.025546930730342865,"7":0.1293155699968338,"8":-0.09642952680587769,"9":-0.06038215383887291,"10":-0.21305488049983978,"11":-0.14120015501976013,"12":0.07134135067462921,"13":0.04668042063713074,"14":0.024058489128947258,"15":0.14758576452732086,"16":-0.1225561574101448,"17":-0.1971178650856018,"18":0.02297642081975937,"19":-0.059648774564266205,"20":0.1337173879146576,"21":-0.15779390931129456,"22":0.04074401780962944,"23":0.1072867289185524,"24":-0.11042477190494537,"25":-0.12326409667730331,"26":0.061478812247514725,"27":0.09277495741844177,"28":0.09398359805345535,"29":-0.21398010849952698,"30":-0.07727652788162231,"31":-0.0712272897362709,"32":0.001010513980872929}},"37":{"bias":1.1184108257293701,"weights":{"0":0.19098709523677826,"1":0.08137940615415573,"2":0.24179305136203766,"3":0.22486872971057892,"4":0.15951204299926758,"5":-0.008803878910839558,"6":0.12931792438030243,"7":0.09773429483175278,"8":-0.189742311835289,"9":0.0919380635023117,"10":-0.11090653389692307,"11":0.05694778263568878,"12":-0.018985148519277573,"13":-0.0833580419421196,"14":0.029892947524785995,"15":-0.14525485038757324,"16":-0.30544430017471313,"17":-0.0796496570110321,"18":-0.2800174951553345,"19":-0.2573736906051636,"20":-0.4431975781917572,"21":0.1025003045797348,"22":-0.1317729502916336,"23":-0.20361268520355225,"24":-0.16522671282291412,"25":-0.007652191445231438,"26":0.1620814949274063,"27":-0.2757298946380615,"28":-0.3745851218700409,"29":-0.08916468173265457,"30":-0.03218790516257286,"31":-0.03883378580212593,"32":0.0553009957075119}},"38":{"bias":-1.9871641397476196,"weights":{"0":-0.3313063681125641,"1":0.011562659405171871,"2":0.02259504608809948,"3":-0.13400936126708984,"4":0.13826629519462585,"5":0.37500083446502686,"6":0.20105168223381042,"7":0.08074560016393661,"8":0.37127912044525146,"9":0.2744649052619934,"10":0.2660422623157501,"11":0.24808251857757568,"12":-0.022077953442931175,"13":0.43581774830818176,"14":0.22793780267238617,"15":0.31429818272590637,"16":0.2804710865020752,"17":0.45782047510147095,"18":0.4559272527694702,"19":0.0035814777947962284,"20":0.2268000841140747,"21":0.25354719161987305,"22":0.18028521537780762,"23":0.012717099860310555,"24":0.21153371036052704,"25":0.33928415179252625,"26":0.04902920871973038,"27":0.2455073446035385,"28":0.1841244250535965,"29":-0.1867377758026123,"30":0.05089784786105156,"31":-0.42742329835891724,"32":-0.2990492582321167}},"39":{"bias":0.09007323533296585,"weights":{"0":-0.04134867712855339,"1":0.15808987617492676,"2":0.010620521381497383,"3":0.05202154070138931,"4":0.2250969558954239,"5":0.43954190611839294,"6":0.19391560554504395,"7":0.08821015059947968,"8":0.1945190578699112,"9":0.24588073790073395,"10":0.01683700457215309,"11":0.022011801600456238,"12":-0.33059215545654297,"13":0.030126124620437622,"14":0.11571234464645386,"15":-0.05468544736504555,"16":0.09592877328395844,"17":0.02420794777572155,"18":0.03992059826850891,"19":-0.11879576742649078,"20":-0.06883621960878372,"21":0.03605576604604721,"22":-0.021431317552924156,"23":-0.11812322586774826,"24":-0.11033646017313004,"25":-0.18476034700870514,"26":-0.13952448964118958,"27":-0.23027411103248596,"28":-0.08623472601175308,"29":0.05852953717112541,"30":0.04965906962752342,"31":-0.12542276084423065,"32":-0.2187451720237732}},"40":{"bias":-2.876708745956421,"weights":{"0":-0.7337655425071716,"1":0.40341195464134216,"2":0.40422332286834717,"3":0.41464561223983765,"4":0.30387082695961,"5":0.19910293817520142,"6":0.2717435359954834,"7":0.30049318075180054,"8":0.23430517315864563,"9":0.0607089102268219,"10":0.06042979657649994,"11":0.34956327080726624,"12":0.5798136591911316,"13":0.37065625190734863,"14":0.15020745992660522,"15":0.3008648455142975,"16":0.07400698959827423,"17":0.21273347735404968,"18":0.03839002549648285,"19":0.20662282407283783,"20":0.386636883020401,"21":0.04617130011320114,"22":0.41715988516807556,"23":0.12582847476005554,"24":0.24940942227840424,"25":-0.11099070310592651,"26":0.1833002120256424,"27":0.07318876683712006,"28":0.30201491713523865,"29":0.08509296923875809,"30":0.2406802922487259,"31":0.3662329614162445,"32":0.3436833620071411}},"41":{"bias":-3.642590284347534,"weights":{"0":-0.6365887522697449,"1":0.3384057879447937,"2":0.3745405077934265,"3":0.536264181137085,"4":0.4155910313129425,"5":0.32952991127967834,"6":0.09503203630447388,"7":0.1997024416923523,"8":0.3430497348308563,"9":0.3458409607410431,"10":0.5196389555931091,"11":0.10570313036441803,"12":0.14629444479942322,"13":0.1417156159877777,"14":0.10445259511470795,"15":0.31836435198783875,"16":0.3273792564868927,"17":0.03197915479540825,"18":0.12958692014217377,"19":0.41516736149787903,"20":0.327937513589859,"21":0.34495678544044495,"22":0.35002997517585754,"23":0.1530650407075882,"24":0.29793521761894226,"25":0.1048741415143013,"26":0.1855822503566742,"27":0.30220040678977966,"28":0.3246256709098816,"29":0.17679034173488617,"30":0.15233637392520905,"31":0.6143542528152466,"32":0.35923486948013306}},"42":{"bias":-0.29270654916763306,"weights":{"0":-0.026157839223742485,"1":0.20487725734710693,"2":0.04994484782218933,"3":-0.17957395315170288,"4":-0.2402980625629425,"5":0.12384960055351257,"6":0.10288044065237045,"7":-0.16223202645778656,"8":-0.27248287200927734,"9":0.048616744577884674,"10":0.19549845159053802,"11":-0.08285874128341675,"12":-0.2657957077026367,"13":0.18907567858695984,"14":0.13138051331043243,"15":-0.08487971127033234,"16":-0.30836036801338196,"17":0.2826620638370514,"18":0.014454285614192486,"19":0.1258816123008728,"20":-0.18757116794586182,"21":0.5460328459739685,"22":0.1942477971315384,"23":-0.1543370634317398,"24":-0.1727009266614914,"25":0.32518458366394043,"26":0.15611505508422852,"27":-0.2178225964307785,"28":0.043497513979673386,"29":0.4040493965148926,"30":0.22966232895851135,"31":-0.28819820284843445,"32":-0.27323415875434875}},"43":{"bias":2.489692211151123,"weights":{"0":0.0012457070406526327,"1":-0.07609378546476364,"2":0.03452153503894806,"3":0.37038862705230713,"4":-0.09589563310146332,"5":-0.13423782587051392,"6":0.02833363600075245,"7":0.3090910315513611,"8":0.0723985955119133,"9":-0.022692697122693062,"10":-0.2323414832353592,"11":-0.309034526348114,"12":-0.07158321142196655,"13":-0.008734116330742836,"14":-0.13478602468967438,"15":-0.3973369002342224,"16":-0.2011178731918335,"17":-0.33817967772483826,"18":-0.22546014189720154,"19":-0.2602168023586273,"20":-0.15192542970180511,"21":-0.433989942073822,"22":-0.2394137680530548,"23":-0.3706718385219574,"24":-0.29594430327415466,"25":-0.14893540740013123,"26":-0.37648114562034607,"27":-0.2817041873931885,"28":-0.6690956950187683,"29":-0.0895816832780838,"30":0.054800763726234436,"31":0.011134582571685314,"32":-0.07435037940740585}},"44":{"bias":-7.507516860961914,"weights":{"0":-1.3226494789123535,"1":0.7497634887695312,"2":0.6786936521530151,"3":0.7273842096328735,"4":0.6346992254257202,"5":0.8263023495674133,"6":0.671574056148529,"7":0.7391083836555481,"8":0.43189936876296997,"9":0.502573549747467,"10":0.5364830493927002,"11":0.5374329686164856,"12":0.6836349964141846,"13":0.619836151599884,"14":0.7756381034851074,"15":0.4374145269393921,"16":0.6552535891532898,"17":0.3831171989440918,"18":0.43511566519737244,"19":0.4364354908466339,"20":0.5228151082992554,"21":0.5952931046485901,"22":0.48682188987731934,"23":0.5902727842330933,"24":0.6042997241020203,"25":0.41175898909568787,"26":0.3639008104801178,"27":0.3681502640247345,"28":0.5893850326538086,"29":0.6846789717674255,"30":0.8155499696731567,"31":0.4965725541114807,"32":0.663185179233551}},"45":{"bias":1.39777672290802,"weights":{"0":0.4763687551021576,"1":-0.1198679506778717,"2":-0.3280816972255707,"3":-0.3570486307144165,"4":-0.24902331829071045,"5":-0.19792866706848145,"6":0.014196494594216347,"7":-0.08100313693284988,"8":-0.1096758097410202,"9":0.010696427896618843,"10":-0.048549942672252655,"11":-0.09966937452554703,"12":0.2623709738254547,"13":-0.2580009400844574,"14":-0.10322389006614685,"15":-0.021726220846176147,"16":-0.12917977571487427,"17":-0.15495896339416504,"18":-0.017908256500959396,"19":-0.07485561072826385,"20":-0.30131933093070984,"21":-0.40130600333213806,"22":-0.006816271226853132,"23":0.07179724425077438,"24":-0.14009296894073486,"25":0.09472566843032837,"26":0.009758450090885162,"27":-0.10109162330627441,"28":-0.031087186187505722,"29":-0.038093678653240204,"30":0.022714383900165558,"31":0.08181767165660858,"32":0.11900011450052261}},"46":{"bias":-0.12496287375688553,"weights":{"0":-0.006178024224936962,"1":0.03076835349202156,"2":-0.08977290987968445,"3":-0.09684674441814423,"4":-0.14722709357738495,"5":0.18300341069698334,"6":-0.18816548585891724,"7":-0.019560789689421654,"8":-0.18837831914424896,"9":-0.037401288747787476,"10":-0.07650451362133026,"11":-0.06052963808178902,"12":-0.15903592109680176,"13":-0.08854598551988602,"14":-0.006518881302326918,"15":0.1197531670331955,"16":-0.13800303637981415,"17":0.19032235443592072,"18":-0.10096946358680725,"19":0.07081000506877899,"20":0.061450205743312836,"21":-0.17204050719738007,"22":0.11010214686393738,"23":0.022836176678538322,"24":-0.0024682898074388504,"25":0.06396757811307907,"26":-0.07598158717155457,"27":0.07269813120365143,"28":-0.045896172523498535,"29":-0.09016478061676025,"30":0.1479402482509613,"31":0.03132767975330353,"32":-0.17112229764461517}},"47":{"bias":0.11379896849393845,"weights":{"0":0.11484509706497192,"1":-0.030472569167613983,"2":-0.08463979512453079,"3":0.11572927981615067,"4":-0.07865343987941742,"5":0.12355243414640427,"6":-0.1960054636001587,"7":0.1292189657688141,"8":-0.15962710976600647,"9":-0.17999526858329773,"10":0.06270807981491089,"11":0.05004258081316948,"12":0.028639011085033417,"13":-0.12661485373973846,"14":-0.15613186359405518,"15":-0.1362007111310959,"16":-0.12075553089380264,"17":-0.17305493354797363,"18":-0.022034725174307823,"19":-0.18403223156929016,"20":-0.14673613011837006,"21":0.08576720207929611,"22":0.002113393973559141,"23":-0.17921432852745056,"24":0.07839776575565338,"25":0.044845160096883774,"26":0.19379590451717377,"27":0.03142857179045677,"28":0.017729753628373146,"29":0.06778310239315033,"30":0.04962266609072685,"31":-0.024805914610624313,"32":-0.13296356797218323}}},{"0":{"bias":0.4543948173522949,"weights":{"0":-0.0409238375723362,"1":0.07202751189470291,"2":0.16023261845111847,"3":0.013513338752090931,"4":-0.05757860094308853,"5":-0.18868452310562134,"6":-0.03730292618274689,"7":0.017527161166071892,"8":-0.15085624158382416,"9":0.019476430490612984,"10":-0.49421927332878113,"11":0.10211765766143799,"12":-0.12195650488138199,"13":-0.15413586795330048,"14":-0.27025648951530457,"15":-0.18853609263896942,"16":0.10635175555944443,"17":0.021985003724694252,"18":-0.15163962543010712,"19":0.10728926956653595,"20":-0.0638892874121666,"21":0.06122761219739914,"22":0.09539467841386795,"23":0.0024846254382282495,"24":0.09563159197568893,"25":-0.10108111053705215,"26":0.09592604637145996,"27":-0.14308041334152222,"28":0.0550188310444355,"29":0.17697301506996155,"30":-0.01662001945078373,"31":0.10131420195102692,"32":0.1494138240814209,"33":-0.09886860847473145,"34":-0.12648218870162964,"35":-0.0900501161813736,"36":0.1247384175658226,"37":-0.11885099858045578,"38":-0.09760497510433197,"39":0.042425766587257385,"40":-0.31651270389556885,"41":-0.36584287881851196,"42":0.13816489279270172,"43":-0.09070869535207748,"44":-0.342478483915329,"45":0.21918804943561554,"46":0.07921414077281952,"47":0.09132198244333267}},"1":{"bias":-0.08666228502988815,"weights":{"0":-0.05026048421859741,"1":-0.005101154092699289,"2":-0.1186140924692154,"3":-0.12521660327911377,"4":0.06506741791963577,"5":0.11439181864261627,"6":0.12523162364959717,"7":-0.08287237584590912,"8":0.08826234191656113,"9":0.13828212022781372,"10":-0.07242640852928162,"11":0.12993507087230682,"12":0.058047980070114136,"13":0.1229998990893364,"14":-0.044946495443582535,"15":0.16964341700077057,"16":-0.01156526431441307,"17":0.18265800178050995,"18":-0.16945399343967438,"19":-0.16412024199962616,"20":0.012550468556582928,"21":0.13477009534835815,"22":0.0947834774851799,"23":0.10663052648305893,"24":0.19113411009311676,"25":-0.02094290405511856,"26":-0.1946948617696762,"27":0.1021387055516243,"28":-0.060438111424446106,"29":0.10900453478097916,"30":0.0024738814681768417,"31":-0.0365830734372139,"32":0.022921141237020493,"33":-0.022798852995038033,"34":-0.06517043709754944,"35":-0.16525930166244507,"36":0.07723772525787354,"37":-0.1408507376909256,"38":0.025763532146811485,"39":-0.21411649882793427,"40":-0.15009824931621552,"41":-0.0906262993812561,"42":-0.08459482342004776,"43":-0.13772054016590118,"44":-0.07096750289201736,"45":0.07920259982347488,"46":0.13514219224452972,"47":-0.1036185547709465}},"2":{"bias":-0.1959500014781952,"weights":{"0":-0.17296943068504333,"1":0.15605273842811584,"2":-0.1616068035364151,"3":0.06328819692134857,"4":-0.12790319323539734,"5":-0.007665014825761318,"6":0.03460653871297836,"7":-0.047014955431222916,"8":0.18668653070926666,"9":0.18453918397426605,"10":0.07249322533607483,"11":-0.1273009032011032,"12":0.17551545798778534,"13":0.02620331011712551,"14":-0.10317844897508621,"15":-0.10491210222244263,"16":0.18545031547546387,"17":-0.13318048417568207,"18":-0.06360257416963577,"19":-0.18378490209579468,"20":-0.10069462656974792,"21":-0.14990024268627167,"22":0.18191899359226227,"23":-0.013130559585988522,"24":0.012609345838427544,"25":0.14484350383281708,"26":0.11482519656419754,"27":-0.17105920612812042,"28":-0.04802864417433739,"29":0.14766421914100647,"30":0.1676788032054901,"31":0.0044419122859835625,"32":0.18629033863544464,"33":-0.0006731640896759927,"34":0.18290148675441742,"35":-0.1562434881925583,"36":-0.08568049967288971,"37":-0.13075050711631775,"38":-0.12186333537101746,"39":-0.04832421615719795,"40":0.07872815430164337,"41":-0.15064333379268646,"42":0.13668186962604523,"43":-0.07762186229228973,"44":0.05937305465340614,"45":-0.04030763730406761,"46":-0.04021713510155678,"47":-0.0372639037668705}},"3":{"bias":0.932334303855896,"weights":{"0":-0.1862937957048416,"1":0.10257618874311447,"2":-0.07924520969390869,"3":0.014252372086048126,"4":0.07451431453227997,"5":0.14560694992542267,"6":0.04441803693771362,"7":0.11153452843427658,"8":0.11520813405513763,"9":0.09156541526317596,"10":-0.10248380154371262,"11":-0.06297650933265686,"12":-0.2747759521007538,"13":0.071476049721241,"14":0.06993599236011505,"15":-0.1613704264163971,"16":-0.03357229009270668,"17":0.12932796776294708,"18":-0.18198418617248535,"19":-0.32551246881484985,"20":-0.1836574822664261,"21":-0.34793952107429504,"22":-0.10538463294506073,"23":-0.3119141757488251,"24":-0.37910449504852295,"25":-0.0392439067363739,"26":0.13332130014896393,"27":0.17607420682907104,"28":0.1259441077709198,"29":-0.2586778402328491,"30":-0.0961373969912529,"31":-0.1410015970468521,"32":0.32867586612701416,"33":-0.02728629671037197,"34":-0.05538707599043846,"35":-0.06827649474143982,"36":-0.17835670709609985,"37":0.04251996800303459,"38":-0.2864750027656555,"39":0.2931293249130249,"40":0.2022191286087036,"41":-0.1264595240354538,"42":-0.19886541366577148,"43":0.24234509468078613,"44":0.037744563072919846,"45":-0.21139435470104218,"46":-0.027901599183678627,"47":0.10805866122245789}},"4":{"bias":-0.1866718828678131,"weights":{"0":-0.1912270039319992,"1":0.16538549959659576,"2":0.13780270516872406,"3":0.1840943694114685,"4":0.010738642886281013,"5":-0.06699227541685104,"6":-0.15107162296772003,"7":-0.03866242989897728,"8":0.17689214646816254,"9":-0.1968933790922165,"10":-0.18328270316123962,"11":-0.18181906640529633,"12":0.053630802780389786,"13":0.19319689273834229,"14":-0.19024251401424408,"15":-0.10534414649009705,"16":0.029267914593219757,"17":-0.16857726871967316,"18":0.0660046860575676,"19":0.13433125615119934,"20":-0.06498610228300095,"21":-0.017490843310952187,"22":0.060046568512916565,"23":0.06414803117513657,"24":0.15423893928527832,"25":0.09560531377792358,"26":-0.11293037235736847,"27":-0.016915369778871536,"28":-0.04401630908250809,"29":0.14888161420822144,"30":-0.05302120000123978,"31":0.0975625216960907,"32":0.00729005690664053,"33":0.1874368041753769,"34":0.027585474774241447,"35":0.01054348610341549,"36":0.004092758521437645,"37":-0.01253503281623125,"38":0.13724620640277863,"39":0.08775092661380768,"40":0.12833164632320404,"41":-0.002306411974132061,"42":-0.1559281200170517,"43":-0.03405040130019188,"44":-0.1267484575510025,"45":-0.007643317338079214,"46":0.012540540657937527,"47":-0.06461255997419357}},"5":{"bias":0.28651106357574463,"weights":{"0":-0.19844520092010498,"1":-0.0979863628745079,"2":0.12149684876203537,"3":-0.09703093767166138,"4":0.08719941228628159,"5":-0.11316653341054916,"6":0.0671515241265297,"7":-0.12246819585561752,"8":-0.07184464484453201,"9":-0.0006618655170314014,"10":0.05733107030391693,"11":-0.03160804137587547,"12":-0.22704969346523285,"13":0.07982882857322693,"14":-0.028147753328084946,"15":0.07957222312688828,"16":-0.06434441357851028,"17":0.009926480241119862,"18":0.059542667120695114,"19":-0.045495372265577316,"20":-0.13042333722114563,"21":-0.21024090051651,"22":-0.2047060877084732,"23":-0.05197688564658165,"24":-0.16956757009029388,"25":-0.12181594222784042,"26":-0.07211554050445557,"27":0.061740051954984665,"28":0.11521366983652115,"29":-0.07073929905891418,"30":-0.07378213107585907,"31":-0.05904362350702286,"32":0.21456533670425415,"33":-0.2097310721874237,"34":0.09797002375125885,"35":-0.008043349720537663,"36":0.09132197499275208,"37":0.0954459011554718,"38":-0.024302655830979347,"39":-0.16694827377796173,"40":-0.23831138014793396,"41":-0.18755094707012177,"42":-0.18312662839889526,"43":-0.09137747436761856,"44":-0.04172957316040993,"45":0.16876095533370972,"46":-0.05707625299692154,"47":0.13660213351249695}},"6":{"bias":-0.012598671019077301,"weights":{"0":0.07046738266944885,"1":-0.06583084166049957,"2":-0.08093821257352829,"3":0.04484541341662407,"4":-0.14887380599975586,"5":0.014670859090983868,"6":0.12760965526103973,"7":0.1572583019733429,"8":-0.06878293305635452,"9":0.19799886643886566,"10":-0.08594565838575363,"11":0.1643129587173462,"12":0.03257843106985092,"13":0.05738930031657219,"14":-0.01797875016927719,"15":-0.004895273596048355,"16":0.15864162147045135,"17":-0.18941795825958252,"18":-0.009195824153721333,"19":0.08415988832712173,"20":-0.18347379565238953,"21":-0.1269172877073288,"22":0.013829406350851059,"23":0.044514000415802,"24":-0.1749553680419922,"25":-0.19356176257133484,"26":-0.04364760220050812,"27":-0.024027153849601746,"28":-0.05260361358523369,"29":-0.1415206342935562,"30":0.11835726350545883,"31":0.1517975777387619,"32":-0.14298881590366364,"33":-0.11058063805103302,"34":0.13687799870967865,"35":-0.09059440344572067,"36":0.1943555623292923,"37":-0.17099568247795105,"38":0.16290274262428284,"39":-0.04754197224974632,"40":-0.05309062823653221,"41":0.019512448459863663,"42":-0.0705244317650795,"43":-0.15501147508621216,"44":-0.13826005160808563,"45":-0.027769358828663826,"46":-0.19867385923862457,"47":0.06938847154378891}},"7":{"bias":-1.4721113443374634,"weights":{"0":0.013499480672180653,"1":-0.11825542151927948,"2":-0.05057065561413765,"3":0.18213900923728943,"4":0.18418538570404053,"5":-0.13579382002353668,"6":0.16793380677700043,"7":-0.06795154511928558,"8":0.21476610004901886,"9":-0.1753779947757721,"10":0.1471642553806305,"11":-0.1931360810995102,"12":0.10308795422315598,"13":-0.008131678216159344,"14":0.30257827043533325,"15":0.07945302128791809,"16":-0.18501026928424835,"17":0.1899617612361908,"18":0.17523731291294098,"19":0.012803392484784126,"20":-0.21078446507453918,"21":0.031610507518053055,"22":0.023637650534510612,"23":0.24109813570976257,"24":0.008926423266530037,"25":0.10791565477848053,"26":-0.023164935410022736,"27":0.05867307633161545,"28":0.23015300929546356,"29":-0.0368804931640625,"30":0.14323239028453827,"31":0.09220722317695618,"32":-0.16364306211471558,"33":-0.17576462030410767,"34":-0.13155141472816467,"35":0.18964265286922455,"36":-0.11485185474157333,"37":-0.20387762784957886,"38":0.2634209394454956,"39":0.10782147198915482,"40":0.3785766363143921,"41":0.284479022026062,"42":0.04206080734729767,"43":-0.0315750353038311,"44":0.3717457354068756,"45":-0.32954317331314087,"46":-0.1935175210237503,"47":0.03928368538618088}},"8":{"bias":-0.5184096693992615,"weights":{"0":-0.09517549723386765,"1":-0.33365383744239807,"2":-0.12898243963718414,"3":-0.12164425104856491,"4":-0.0644412413239479,"5":0.05221284553408623,"6":0.3062256872653961,"7":-0.1446145474910736,"8":0.07709527760744095,"9":-0.19909298419952393,"10":0.1736290156841278,"11":-0.16509459912776947,"12":-0.021667510271072388,"13":-0.10773549973964691,"14":0.28697285056114197,"15":0.08299184590578079,"16":-0.12183871120214462,"17":-0.01539464108645916,"18":-0.031099051237106323,"19":-0.11117186397314072,"20":0.03665488585829735,"21":0.1446501910686493,"22":0.07201293855905533,"23":-0.19838671386241913,"24":-0.005600383970886469,"25":-0.12001919746398926,"26":0.18708814680576324,"27":0.18752776086330414,"28":0.06180617958307266,"29":0.17099738121032715,"30":0.13220950961112976,"31":-0.14590731263160706,"32":-0.01213675457984209,"33":0.12633320689201355,"34":0.12165840715169907,"35":0.06255729496479034,"36":0.14942774176597595,"37":-0.020208310335874557,"38":0.11183617264032364,"39":0.18473432958126068,"40":0.02369665913283825,"41":0.23388656973838806,"42":-0.027313433587551117,"43":0.12743639945983887,"44":0.29179608821868896,"45":-0.19889622926712036,"46":0.06372949481010437,"47":-0.15961982309818268}},"9":{"bias":0.3146383464336395,"weights":{"0":0.08270823955535889,"1":0.08168824762105942,"2":-0.08960980176925659,"3":0.10544095933437347,"4":-0.13512727618217468,"5":0.02860867790877819,"6":0.03244207054376602,"7":0.03320637717843056,"8":-0.03815582022070885,"9":-0.06348158419132233,"10":-0.07413263618946075,"11":-0.058064110577106476,"12":-0.23608267307281494,"13":0.1850193440914154,"14":-0.00960246566683054,"15":0.18868422508239746,"16":-0.16870500147342682,"17":-0.08353427797555923,"18":-0.16779567301273346,"19":-0.06245052069425583,"20":-0.04808695241808891,"21":0.05390750989317894,"22":-0.15726788341999054,"23":-0.17913539707660675,"24":-0.07852283120155334,"25":0.047456346452236176,"26":-0.09891696274280548,"27":-0.08868982642889023,"28":-0.11783468723297119,"29":0.056685999035835266,"30":0.06613222509622574,"31":0.2227381318807602,"32":-0.12085520476102829,"33":-0.01516476646065712,"34":-0.10584382712841034,"35":-0.15349219739437103,"36":0.02805207669734955,"37":0.13979198038578033,"38":-0.07346049696207047,"39":0.09046155214309692,"40":-0.24132420122623444,"41":-0.09397415816783905,"42":0.16414892673492432,"43":0.25791072845458984,"44":0.010024841874837875,"45":-0.08690861612558365,"46":0.16987721621990204,"47":0.03725392371416092}},"10":{"bias":0.31999462842941284,"weights":{"0":-0.3083372414112091,"1":-0.10651642829179764,"2":0.069880910217762,"3":0.1615811586380005,"4":-0.027876894921064377,"5":-0.16491562128067017,"6":-0.203055277466774,"7":0.015304080210626125,"8":0.08160129934549332,"9":-0.027808045968413353,"10":-0.18963110446929932,"11":0.3176780939102173,"12":-0.05681657791137695,"13":-0.10445788502693176,"14":-0.2907449007034302,"15":0.02551899291574955,"16":0.13450400531291962,"17":0.033521659672260284,"18":-0.12814445793628693,"19":-0.18850818276405334,"20":0.1646270751953125,"21":-0.02032480575144291,"22":0.0842069610953331,"23":-0.046218596398830414,"24":-0.18985331058502197,"25":0.050951551645994186,"26":0.020815296098589897,"27":0.0824761763215065,"28":-0.17130792140960693,"29":0.10354272276163101,"30":0.024350222200155258,"31":0.10891636461019516,"32":0.25913187861442566,"33":-0.052100393921136856,"34":0.07686025649309158,"35":0.002578435931354761,"36":0.15397436916828156,"37":-0.11139488965272903,"38":-0.08026371151208878,"39":-0.15925250947475433,"40":-0.280152291059494,"41":-0.1483186036348343,"42":-0.33922603726387024,"43":0.03781222179532051,"44":-0.446465402841568,"45":0.22179406881332397,"46":0.06410713493824005,"47":0.17332398891448975}},"11":{"bias":0.05781416594982147,"weights":{"0":-0.14776793122291565,"1":0.07721568644046783,"2":0.07842785120010376,"3":0.036096375435590744,"4":-0.10782932490110397,"5":-0.13550379872322083,"6":-0.10754934698343277,"7":-0.028431236743927002,"8":-0.12400276958942413,"9":0.08469688892364502,"10":0.05052940919995308,"11":-0.07020740211009979,"12":-0.13363082706928253,"13":0.0002308300754521042,"14":0.10991205275058746,"15":-0.12146397680044174,"16":0.07002438604831696,"17":-0.11981325596570969,"18":0.0588386096060276,"19":-0.00420329999178648,"20":-0.17397534847259521,"21":-0.14391091465950012,"22":0.10828591138124466,"23":-0.11175375431776047,"24":0.0923992469906807,"25":-0.021610572934150696,"26":0.10181786864995956,"27":0.11322516202926636,"28":0.08828219026327133,"29":0.19209134578704834,"30":-0.07171043008565903,"31":0.06864653527736664,"32":0.18184614181518555,"33":0.0622674860060215,"34":0.1433282345533371,"35":0.08622479438781738,"36":0.19591495394706726,"37":-0.1896265596151352,"38":0.09360316395759583,"39":0.15890540182590485,"40":-0.18835274875164032,"41":0.0518982820212841,"42":0.011960744857788086,"43":0.08394212275743484,"44":0.11989583820104599,"45":-0.19110897183418274,"46":0.03605305776000023,"47":-0.14896801114082336}},"12":{"bias":-0.23145543038845062,"weights":{"0":-0.17985381186008453,"1":0.1324378401041031,"2":-0.09900124371051788,"3":0.09292507916688919,"4":0.1443631649017334,"5":0.09376110136508942,"6":-0.03140480816364288,"7":0.06583263725042343,"8":-0.1518705040216446,"9":0.16128410398960114,"10":-0.05084635317325592,"11":-0.1341625601053238,"12":0.13243113458156586,"13":-0.10198584198951721,"14":-0.10290300101041794,"15":0.10155275464057922,"16":-0.1748448610305786,"17":0.02324640192091465,"18":-0.05763506516814232,"19":-0.04913198947906494,"20":-0.11047761887311935,"21":-0.11899030953645706,"22":-0.07952027022838593,"23":0.11831250786781311,"24":-0.18080228567123413,"25":-0.0456780381500721,"26":-0.08684704452753067,"27":0.16257344186306,"28":-0.012027795426547527,"29":0.09877714514732361,"30":-0.06879323720932007,"31":0.15743325650691986,"32":0.08905363082885742,"33":-0.08121795207262039,"34":0.040933966636657715,"35":0.10793161392211914,"36":0.1688159555196762,"37":-0.1637132167816162,"38":0.15771913528442383,"39":-0.10763833671808243,"40":0.02286589704453945,"41":-0.025861913338303566,"42":0.15212710201740265,"43":0.12459369003772736,"44":0.06041870266199112,"45":-0.11087428033351898,"46":0.10527615994215012,"47":-0.048515625298023224}},"13":{"bias":0.8818290829658508,"weights":{"0":-0.18944761157035828,"1":0.03961800038814545,"2":0.021911825984716415,"3":-0.05316261202096939,"4":-0.0026607189793139696,"5":-0.18331994116306305,"6":-0.1827506422996521,"7":-0.04104970023036003,"8":0.21472546458244324,"9":0.00588862644508481,"10":-0.2576119899749756,"11":0.06533073633909225,"12":-0.3316703140735626,"13":0.17864206433296204,"14":-0.050593290477991104,"15":0.13516201078891754,"16":0.1073942482471466,"17":0.05689328908920288,"18":-0.27484846115112305,"19":-0.3944021761417389,"20":0.0020120118279010057,"21":-0.1856706738471985,"22":0.05574880167841911,"23":-0.6387280821800232,"24":-0.11476366221904755,"25":-0.4813622236251831,"26":-0.028733981773257256,"27":0.10199267417192459,"28":-0.34932810068130493,"29":0.08041512221097946,"30":-0.008275105617940426,"31":0.15265868604183197,"32":0.4395601153373718,"33":-0.0013067881809547544,"34":-0.07616496831178665,"35":0.09479586780071259,"36":0.05606706812977791,"37":0.23623870313167572,"38":-0.16162928938865662,"39":0.06608454883098602,"40":-0.1209157407283783,"41":-0.3083391785621643,"42":-0.34477582573890686,"43":0.29295000433921814,"44":-0.5376905202865601,"45":0.1699216365814209,"46":0.14066869020462036,"47":0.032133910804986954}},"14":{"bias":-0.14570823311805725,"weights":{"0":-0.10386230051517487,"1":0.0014483564300462604,"2":0.10065284371376038,"3":0.11527841538190842,"4":0.17797966301441193,"5":-0.021654639393091202,"6":-0.017115747556090355,"7":0.09303156286478043,"8":0.024243565276265144,"9":0.02755005843937397,"10":-0.19082863628864288,"11":0.0030249746050685644,"12":-0.2025100290775299,"13":-0.0604342557489872,"14":-0.005526805762201548,"15":0.03351946547627449,"16":0.13964325189590454,"17":0.06766476482152939,"18":0.10438192635774612,"19":-0.05256100744009018,"20":-0.1724083423614502,"21":-0.10607275366783142,"22":-0.09466557204723358,"23":0.11680319905281067,"24":-0.11478056013584137,"25":0.06828249990940094,"26":0.19139091670513153,"27":0.08600571006536484,"28":-0.054990701377391815,"29":-0.07123184204101562,"30":-0.15081927180290222,"31":-0.01879960671067238,"32":0.034231510013341904,"33":0.0413212887942791,"34":0.05234507843852043,"35":0.1280125081539154,"36":0.16710689663887024,"37":0.18670329451560974,"38":0.1551373451948166,"39":-0.043542567640542984,"40":0.14129850268363953,"41":0.008633806370198727,"42":0.14882326126098633,"43":0.13656875491142273,"44":-0.008356891572475433,"45":-0.14957523345947266,"46":0.11941073089838028,"47":0.18790216743946075}},"15":{"bias":-0.24843892455101013,"weights":{"0":0.12065155804157257,"1":-0.09585181623697281,"2":0.12641683220863342,"3":0.04477829113602638,"4":0.18429850041866302,"5":0.1848936825990677,"6":0.1600308120250702,"7":-0.1872832328081131,"8":-0.1569567769765854,"9":-0.12052515894174576,"10":-0.13790005445480347,"11":-0.007469806354492903,"12":-0.1364668309688568,"13":0.051071472465991974,"14":-0.16404636204242706,"15":0.08147072046995163,"16":0.13660170137882233,"17":-0.01895740255713463,"18":-0.10579459369182587,"19":0.08724609017372131,"20":-0.07624729722738266,"21":0.027245206758379936,"22":0.06417069584131241,"23":0.03264175355434418,"24":0.19661745429039001,"25":-0.026978282257914543,"26":-0.04159754142165184,"27":-0.10982388257980347,"28":0.1297113001346588,"29":0.09272856265306473,"30":-0.10431952774524689,"31":0.08747458457946777,"32":-0.014062087051570415,"33":-0.10148875415325165,"34":-0.05426826328039169,"35":0.16264617443084717,"36":-0.03479446843266487,"37":-0.16985049843788147,"38":-0.05114559456706047,"39":-0.11913733929395676,"40":-0.015707893297076225,"41":0.10657033324241638,"42":0.1731356531381607,"43":0.02413068152964115,"44":0.05115241929888725,"45":0.18975144624710083,"46":-0.0405416414141655,"47":-0.18905693292617798}},"16":{"bias":-0.10891120880842209,"weights":{"0":0.019594671204686165,"1":0.15940837562084198,"2":-0.17557424306869507,"3":-0.04390585049986839,"4":0.12012198567390442,"5":-0.10619933158159256,"6":0.020293239504098892,"7":-0.04589579254388809,"8":0.021540852263569832,"9":0.17544689774513245,"10":-0.1450839340686798,"11":0.05885438621044159,"12":-0.17758464813232422,"13":-0.1904871165752411,"14":-0.16515572369098663,"15":-0.04781192168593407,"16":0.06464933604001999,"17":-0.08459755033254623,"18":-0.1874750405550003,"19":-0.14983569085597992,"20":0.08226437121629715,"21":-0.1664465367794037,"22":0.05201279744505882,"23":0.018354929983615875,"24":-0.07851790636777878,"25":-0.08055489510297775,"26":0.09329777956008911,"27":0.02188614010810852,"28":0.06469251215457916,"29":0.03806065768003464,"30":0.1562490314245224,"31":-0.1041402742266655,"32":0.13899770379066467,"33":-0.1598806232213974,"34":-0.1659812182188034,"35":0.18944482505321503,"36":0.03971085697412491,"37":0.100290946662426,"38":-0.13530927896499634,"39":0.039191342890262604,"40":0.05277033522725105,"41":0.03356990963220596,"42":-0.11725836247205734,"43":0.12717501819133759,"44":0.10959380120038986,"45":-0.0027755568735301495,"46":0.07470259070396423,"47":-0.07156002521514893}},"17":{"bias":-0.7696887850761414,"weights":{"0":0.2849539816379547,"1":-0.08256270736455917,"2":-0.1809927374124527,"3":0.08833564072847366,"4":0.1430395394563675,"5":-0.008411402814090252,"6":0.07800948619842529,"7":-0.17827463150024414,"8":0.27037861943244934,"9":-0.29747337102890015,"10":0.1333860158920288,"11":-0.08608736842870712,"12":0.09249025583267212,"13":-0.019555089995265007,"14":0.14408686757087708,"15":0.10030055791139603,"16":0.13612543046474457,"17":0.09854849427938461,"18":-0.09580203890800476,"19":-0.10198556631803513,"20":-0.033107783645391464,"21":-0.008477672003209591,"22":0.24234558641910553,"23":0.3099968433380127,"24":0.07848459482192993,"25":0.16156664490699768,"26":-0.07856302708387375,"27":-0.1699841171503067,"28":-0.002440687268972397,"29":0.21544362604618073,"30":-0.19688814878463745,"31":0.069245845079422,"32":0.031867511570453644,"33":-0.15149521827697754,"34":-0.06480291485786438,"35":0.07185182720422745,"36":0.12761221826076508,"37":0.04253207892179489,"38":0.2508159875869751,"39":0.18752343952655792,"40":0.1657639741897583,"41":0.03579789400100708,"42":-0.42972320318222046,"43":0.11202788352966309,"44":0.3352140188217163,"45":-0.08433189988136292,"46":0.032915085554122925,"47":0.17675426602363586}},"18":{"bias":0.623272180557251,"weights":{"0":-0.18312233686447144,"1":-0.11949875950813293,"2":-0.036516107618808746,"3":-0.023602768778800964,"4":0.03558347374200821,"5":-0.12199855595827103,"6":0.08218583464622498,"7":0.17661038041114807,"8":0.1346268504858017,"9":-0.21342408657073975,"10":-0.44995856285095215,"11":-0.10027972608804703,"12":-0.45586737990379333,"13":-0.1564212292432785,"14":-0.18722759187221527,"15":-0.17286241054534912,"16":0.12928736209869385,"17":-0.16901278495788574,"18":-0.16776342689990997,"19":-0.3165789544582367,"20":0.03889330476522446,"21":-0.36959871649742126,"22":-0.11558017879724503,"23":-0.41569891571998596,"24":-0.00946347787976265,"25":-0.2541824281215668,"26":-0.057009752839803696,"27":-0.04334716126322746,"28":-0.09766969084739685,"29":-0.01589750126004219,"30":0.034058526158332825,"31":0.20863184332847595,"32":0.0466739684343338,"33":0.05216890573501587,"34":0.11439339816570282,"35":0.1698101907968521,"36":0.18026836216449738,"37":0.23383165895938873,"38":-0.19541847705841064,"39":0.2626827657222748,"40":-0.2326405793428421,"41":-0.10083895921707153,"42":-0.11908655613660812,"43":0.16437867283821106,"44":-0.41161778569221497,"45":0.004797327797859907,"46":0.02894955687224865,"47":-0.07188433408737183}},"19":{"bias":0.12688937783241272,"weights":{"0":-0.23810157179832458,"1":0.16702787578105927,"2":-0.06501385569572449,"3":0.0341465100646019,"4":-0.04932371899485588,"5":0.1900293380022049,"6":0.09540752321481705,"7":0.0009692561579868197,"8":-0.30217310786247253,"9":-0.06801469624042511,"10":0.07804088294506073,"11":-0.10465844720602036,"12":-0.053001292049884796,"13":-0.19880437850952148,"14":-0.23857130110263824,"15":0.05501757189631462,"16":-0.11446034163236618,"17":-0.178078755736351,"18":0.18365082144737244,"19":-0.032064568251371384,"20":0.16108059883117676,"21":-0.13268375396728516,"22":-0.2824800908565521,"23":0.015808239579200745,"24":0.016525613144040108,"25":0.13771852850914001,"26":-0.13221122324466705,"27":0.17198072373867035,"28":0.03543010726571083,"29":-0.042646873742341995,"30":0.08767294883728027,"31":0.12584549188613892,"32":-0.24631282687187195,"33":-0.19728097319602966,"34":0.17011119425296783,"35":-0.020375559106469154,"36":-0.11762628704309464,"37":-0.13143116235733032,"38":-0.05143545940518379,"39":0.035055264830589294,"40":0.1608804166316986,"41":0.03571832552552223,"42":-0.18902245163917542,"43":-0.0003546701918821782,"44":-0.012064180336892605,"45":0.030686043202877045,"46":-0.074549600481987,"47":-0.0047034453600645065}},"20":{"bias":-0.06971585750579834,"weights":{"0":-0.13937683403491974,"1":0.08400513231754303,"2":-0.17613418400287628,"3":0.17467685043811798,"4":-0.15337510406970978,"5":0.000725099875126034,"6":-0.03216825798153877,"7":0.16011174023151398,"8":-0.08876416832208633,"9":-0.16884443163871765,"10":-0.0045165978372097015,"11":-0.10534816235303879,"12":-0.24320155382156372,"13":-0.1367352306842804,"14":0.13752155005931854,"15":0.08923178911209106,"16":0.12671826779842377,"17":-0.10219629853963852,"18":0.1263612061738968,"19":0.10226583480834961,"20":-0.047687459737062454,"21":-0.1759478896856308,"22":-0.17083831131458282,"23":0.13229365646839142,"24":-0.2483922392129898,"25":0.025324733927845955,"26":-0.06275695562362671,"27":-0.0681738555431366,"28":-0.03324868157505989,"29":-0.06064029783010483,"30":0.14632658660411835,"31":0.011721184477210045,"32":0.25993087887763977,"33":0.1524086743593216,"34":0.034737180918455124,"35":0.19310295581817627,"36":-0.035443264991045,"37":-0.16862137615680695,"38":-0.24774780869483948,"39":-0.10989126563072205,"40":-0.0762983113527298,"41":-0.017566947266459465,"42":-0.06389312446117401,"43":0.13151414692401886,"44":0.13163426518440247,"45":0.2751822769641876,"46":0.09679324924945831,"47":0.19398735463619232}},"21":{"bias":-0.06612588465213776,"weights":{"0":0.05402568355202675,"1":0.08431597799062729,"2":0.14042702317237854,"3":0.05315396562218666,"4":0.17640578746795654,"5":0.08100508898496628,"6":0.02454536035656929,"7":-0.13513325154781342,"8":-0.013946875929832458,"9":0.02970464527606964,"10":0.13485102355480194,"11":-0.026932764798402786,"12":-0.07503197342157364,"13":0.19744199514389038,"14":-0.11566566675901413,"15":-0.09652527421712875,"16":0.008156084455549717,"17":0.13567224144935608,"18":0.1370210498571396,"19":0.0786910429596901,"20":0.008764352649450302,"21":-0.06698858737945557,"22":-0.2964083254337311,"23":0.27542948722839355,"24":0.0009248802089132369,"25":-0.008646797388792038,"26":0.15391385555267334,"27":-0.14150400459766388,"28":0.23090843856334686,"29":-0.3910423219203949,"30":0.017921291291713715,"31":-0.28690576553344727,"32":0.1477019488811493,"33":-0.06000680848956108,"34":-0.14875908195972443,"35":-0.08789028227329254,"36":0.13182729482650757,"37":0.13325518369674683,"38":-0.29217660427093506,"39":-0.11951523274183273,"40":0.1302696317434311,"41":0.11758638173341751,"42":-0.3665584623813629,"43":-0.13572320342063904,"44":0.011423015035688877,"45":0.339236855506897,"46":-0.04795996472239494,"47":0.12652303278446198}},"22":{"bias":0.959822952747345,"weights":{"0":0.048936087638139725,"1":0.220297172665596,"2":-0.05783815681934357,"3":-0.06009626388549805,"4":-0.016534162685275078,"5":0.06894190609455109,"6":-0.24034032225608826,"7":0.11346866190433502,"8":-0.12313590943813324,"9":-0.11301545053720474,"10":-0.18293973803520203,"11":0.21335852146148682,"12":0.20478668808937073,"13":0.15299910306930542,"14":-0.04887692630290985,"15":0.14246001839637756,"16":-0.08200225979089737,"17":-0.024607280269265175,"18":-0.383734792470932,"19":-0.08961544185876846,"20":-0.14505158364772797,"21":-0.2605503499507904,"22":0.056135132908821106,"23":-0.058591295033693314,"24":-0.13293777406215668,"25":0.1759500950574875,"26":-0.0833549052476883,"27":-0.15358000993728638,"28":0.03283638134598732,"29":-0.46881046891212463,"30":0.22296282649040222,"31":0.06479311734437943,"32":0.07077988237142563,"33":0.04587576910853386,"34":-0.08544538170099258,"35":0.08469883352518082,"36":0.09762881696224213,"37":0.03830832615494728,"38":-0.06785272061824799,"39":-0.17180418968200684,"40":-0.04275143891572952,"41":-0.07038123160600662,"42":-0.26669374108314514,"43":0.09130461513996124,"44":-0.252684086561203,"45":-0.21114206314086914,"46":-0.020068759098649025,"47":0.17442083358764648}},"23":{"bias":-0.9099931716918945,"weights":{"0":0.13522858917713165,"1":-0.16017232835292816,"2":-0.0854850485920906,"3":-0.037497006356716156,"4":-0.1863964945077896,"5":-0.16755425930023193,"6":0.41157805919647217,"7":0.09706735610961914,"8":0.34284085035324097,"9":-0.3258248567581177,"10":0.23267991840839386,"11":-0.2588467299938202,"12":0.03426605463027954,"13":0.050744473934173584,"14":0.2956397235393524,"15":0.10440704971551895,"16":0.024731440469622612,"17":0.16776098310947418,"18":-0.06912287324666977,"19":0.1113869696855545,"20":0.012697014026343822,"21":0.18253567814826965,"22":0.22039993107318878,"23":0.16239386796951294,"24":-0.05647004023194313,"25":0.08751915395259857,"26":0.142782524228096,"27":0.08145824819803238,"28":0.06625320762395859,"29":0.4889032542705536,"30":-0.01984480209648609,"31":0.25935062766075134,"32":-0.04374539852142334,"33":0.12697573006153107,"34":-0.3028441369533539,"35":0.01961137354373932,"36":-0.15808464586734772,"37":0.056149598211050034,"38":0.24779222905635834,"39":0.1848706752061844,"40":0.09400144964456558,"41":0.0400078222155571,"42":-0.15515048801898956,"43":-0.1465662568807602,"44":0.5049961805343628,"45":0.37216898798942566,"46":-0.19272994995117188,"47":0.11513090133666992}},"24":{"bias":-0.04429732635617256,"weights":{"0":0.1652679592370987,"1":0.1570175141096115,"2":0.1423095166683197,"3":-0.19376900792121887,"4":-0.13503479957580566,"5":0.01931784860789776,"6":0.031241657212376595,"7":0.198935866355896,"8":-0.1440228819847107,"9":-0.19117482006549835,"10":0.11440123617649078,"11":0.11545275896787643,"12":0.0029852455481886864,"13":-0.1729162484407425,"14":-0.1164412796497345,"15":0.14863918721675873,"16":-0.16428056359291077,"17":0.19778446853160858,"18":0.1587849259376526,"19":0.0052421558648347855,"20":0.13388340175151825,"21":-0.010866559110581875,"22":-0.25655704736709595,"23":-0.16466517746448517,"24":-0.03502693772315979,"25":-0.0028510175179690123,"26":0.002918246202170849,"27":-0.02641552872955799,"28":0.01150482427328825,"29":0.19513384997844696,"30":0.21135422587394714,"31":0.1377868950366974,"32":-0.10053639858961105,"33":0.18689818680286407,"34":-0.12623876333236694,"35":-0.13742709159851074,"36":0.07066413760185242,"37":0.01727372035384178,"38":0.1269562542438507,"39":0.04024428501725197,"40":-0.1265888512134552,"41":-0.21174438297748566,"42":-0.05356128513813019,"43":-0.24175910651683807,"44":0.11697814613580704,"45":0.10901204496622086,"46":0.11047190427780151,"47":-0.16776861250400543}},"25":{"bias":0.04909655451774597,"weights":{"0":-0.057820796966552734,"1":-0.0715341791510582,"2":0.10921135544776917,"3":0.17145602405071259,"4":-0.14956188201904297,"5":-0.174245223402977,"6":0.01360665075480938,"7":-0.03232261538505554,"8":-0.09225175529718399,"9":-0.1292361170053482,"10":0.002215449931100011,"11":0.16966696083545685,"12":0.13740526139736176,"13":-0.05568721517920494,"14":-0.0007856762385927141,"15":0.102060467004776,"16":-0.1887536197900772,"17":0.13241057097911835,"18":-0.26588690280914307,"19":-0.0588693730533123,"20":0.14782589673995972,"21":-0.07592011243104935,"22":-0.1653059422969818,"23":-0.24010038375854492,"24":0.047545723617076874,"25":-0.31943175196647644,"26":-0.14732606709003448,"27":0.14448311924934387,"28":-0.3725753724575043,"29":-0.07851224392652512,"30":-0.05315985903143883,"31":0.02432861365377903,"32":0.05069167912006378,"33":-0.17791052162647247,"34":-0.0670483186841011,"35":-0.1753014773130417,"36":-0.010178487747907639,"37":0.017776304855942726,"38":0.08146478235721588,"39":0.12470470368862152,"40":-0.011572891846299171,"41":-0.2425495684146881,"42":-0.28816965222358704,"43":0.06417689472436905,"44":-0.12893511354923248,"45":0.17168569564819336,"46":0.03315341845154762,"47":-0.018881261348724365}},"26":{"bias":-3.1625494956970215,"weights":{"0":0.2667221426963806,"1":-0.1846083551645279,"2":0.038959797471761703,"3":0.1634097695350647,"4":0.02969326451420784,"5":-0.16564695537090302,"6":0.18785391747951508,"7":0.0391414500772953,"8":-0.18682943284511566,"9":0.039497025310993195,"10":0.5778615474700928,"11":-0.3627318739891052,"12":0.2789003551006317,"13":0.04480622336268425,"14":0.14825467765331268,"15":0.10018356889486313,"16":0.06802015006542206,"17":0.12814702093601227,"18":0.3663710951805115,"19":0.4038250148296356,"20":-0.09289688616991043,"21":0.23934237658977509,"22":0.04106524586677551,"23":0.5951866507530212,"24":-0.06066157668828964,"25":0.4257184565067291,"26":0.15408116579055786,"27":0.1074155643582344,"28":0.32538291811943054,"29":-0.08205564320087433,"30":0.17082947492599487,"31":-0.28055593371391296,"32":-0.6738244891166687,"33":-0.007591646164655685,"34":0.03954469412565231,"35":-0.1399647444486618,"36":-0.15080377459526062,"37":-0.3269973397254944,"38":0.18086226284503937,"39":-0.09936024248600006,"40":0.3949533700942993,"41":0.4146961271762848,"42":0.21438314020633698,"43":-0.48446333408355713,"44":0.8928639888763428,"45":-0.4349655210971832,"46":0.16503994166851044,"47":0.15510699152946472}},"27":{"bias":-0.7181769609451294,"weights":{"0":-0.02614535205066204,"1":0.12425118684768677,"2":0.06071917340159416,"3":0.1497732698917389,"4":0.14996856451034546,"5":-0.010707070119678974,"6":0.12098897993564606,"7":0.19762083888053894,"8":0.021099260076880455,"9":-0.04783305525779724,"10":0.2562379837036133,"11":-0.45563775300979614,"12":0.13658423721790314,"13":-0.01929161325097084,"14":-0.11234672367572784,"15":0.14268457889556885,"16":0.06270840764045715,"17":0.10432365536689758,"18":0.12875600159168243,"19":0.21291705965995789,"20":0.12288189679384232,"21":-0.17854231595993042,"22":-0.26457923650741577,"23":0.41682198643684387,"24":0.2832542359828949,"25":0.2043645977973938,"26":0.1662759631872177,"27":-0.21315352618694305,"28":0.0945880264043808,"29":0.005827339831739664,"30":0.1450527459383011,"31":-0.12608392536640167,"32":-0.2425878942012787,"33":-0.014272564090788364,"34":0.04902142658829689,"35":0.1279136836528778,"36":0.0733717679977417,"37":-0.11384653300046921,"38":-0.2593059241771698,"39":0.07326214015483856,"40":-0.055544521659612656,"41":0.12439002096652985,"42":-0.2634166479110718,"43":-0.1503644734621048,"44":0.2826666831970215,"45":0.25712835788726807,"46":-0.01678173989057541,"47":0.08957063406705856}},"28":{"bias":-0.09508942812681198,"weights":{"0":0.01879044994711876,"1":-0.11455730348825455,"2":-0.04701447859406471,"3":-0.05947621911764145,"4":-0.06696155667304993,"5":0.11366748064756393,"6":0.023279542103409767,"7":-0.029190151020884514,"8":0.12821710109710693,"9":-0.13342750072479248,"10":-0.22497433423995972,"11":0.26947319507598877,"12":0.04660899564623833,"13":0.12686340510845184,"14":-0.17369259893894196,"15":0.19488416612148285,"16":-0.05253414064645767,"17":0.1865883469581604,"18":0.1253616064786911,"19":0.1228993833065033,"20":-0.031377844512462616,"21":-0.08743517100811005,"22":0.13577914237976074,"23":0.2691977024078369,"24":0.07471144944429398,"25":0.06403415650129318,"26":-0.012185100466012955,"27":-0.06203209608793259,"28":-0.12458813190460205,"29":-0.2171391397714615,"30":-0.18209542334079742,"31":-0.14335308969020844,"32":-0.14067517220973969,"33":-0.05786120891571045,"34":0.1459946483373642,"35":0.11773725599050522,"36":-0.009376553818583488,"37":-0.1386532187461853,"38":0.13270245492458344,"39":-0.1736162155866623,"40":-0.15558940172195435,"41":0.13444273173809052,"42":0.19575412571430206,"43":-0.07862624526023865,"44":-0.06396525353193283,"45":-0.17207737267017365,"46":0.08745583891868591,"47":0.17234736680984497}},"29":{"bias":0.7595263123512268,"weights":{"0":-0.22781720757484436,"1":-0.00767418323084712,"2":-0.10238048434257507,"3":0.11731912940740585,"4":0.029962653294205666,"5":-0.10976870357990265,"6":-0.24195219576358795,"7":-0.14512088894844055,"8":-0.04258513078093529,"9":0.2986406981945038,"10":-0.25428682565689087,"11":0.3040173351764679,"12":-0.162576362490654,"13":-0.09997960925102234,"14":-0.14747187495231628,"15":-0.12915734946727753,"16":0.14257654547691345,"17":-0.13016285002231598,"18":-0.12306389957666397,"19":-0.05917411670088768,"20":0.1255555897951126,"21":-0.015552345663309097,"22":-0.12337706983089447,"23":-0.2705445885658264,"24":0.07274234294891357,"25":-0.24255047738552094,"26":-0.030854936689138412,"27":0.006715261377394199,"28":-0.12127383053302765,"29":0.31718969345092773,"30":-0.052926305681467056,"31":0.23908068239688873,"32":0.26945042610168457,"33":0.09891310334205627,"34":0.0712025836110115,"35":0.023780612275004387,"36":0.12785948812961578,"37":0.10652580857276917,"38":-0.16036878526210785,"39":-0.1752472221851349,"40":-0.17643877863883972,"41":-0.19010384380817413,"42":0.21367761492729187,"43":0.16604214906692505,"44":-0.49730539321899414,"45":0.4770583510398865,"46":0.07788039743900299,"47":0.17149384319782257}},"30":{"bias":-0.004372569266706705,"weights":{"0":-0.0949072316288948,"1":0.04993539676070213,"2":0.13613109290599823,"3":-0.05524139106273651,"4":0.12755291163921356,"5":-0.17324793338775635,"6":-0.13232393562793732,"7":0.08908550441265106,"8":0.031002569943666458,"9":0.0021146617364138365,"10":-0.09576314687728882,"11":0.045740097761154175,"12":0.0013193784980103374,"13":0.07006090879440308,"14":0.11572923511266708,"15":0.012297051958739758,"16":0.1291557103395462,"17":-0.16750182211399078,"18":-0.05834462121129036,"19":-0.0048741246573626995,"20":0.03757280111312866,"21":-0.11150956898927689,"22":0.03852926194667816,"23":-0.19857966899871826,"24":-0.0548534020781517,"25":-0.19507792592048645,"26":-0.019808808341622353,"27":-0.11223901063203812,"28":0.10627525299787521,"29":-0.19590678811073303,"30":0.14922872185707092,"31":-0.09814011305570602,"32":-0.088125079870224,"33":-0.022661717608571053,"34":-0.11308102309703827,"35":-0.12682898342609406,"36":-0.057391393929719925,"37":-0.00820836704224348,"38":-0.08149764686822891,"39":-0.07817403972148895,"40":-0.137390598654747,"41":0.1817386895418167,"42":-0.14383988082408905,"43":-0.014207619242370129,"44":-0.13954289257526398,"45":-0.04903544485569,"46":0.08881564438343048,"47":0.12808537483215332}},"31":{"bias":0.9880682826042175,"weights":{"0":0.0571635365486145,"1":0.27584320306777954,"2":-0.15612152218818665,"3":-0.0009834278607740998,"4":0.03044862486422062,"5":-0.13840404152870178,"6":-0.2056516408920288,"7":-0.19204837083816528,"8":-0.33470460772514343,"9":-0.060444802045822144,"10":-0.18642650544643402,"11":0.40033552050590515,"12":0.06896134465932846,"13":0.0214515570551157,"14":0.15291965007781982,"15":0.10189065337181091,"16":-0.16491733491420746,"17":-0.06270424276590347,"18":-0.37065526843070984,"19":0.1529528796672821,"20":-0.01860807090997696,"21":0.1228828951716423,"22":0.05153471976518631,"23":0.36877429485321045,"24":-0.23593372106552124,"25":0.1416301727294922,"26":-0.05988341569900513,"27":0.05516596883535385,"28":0.0717114508152008,"29":-0.4080516993999481,"30":0.05595873296260834,"31":-0.1586846262216568,"32":-0.06002531200647354,"33":-0.09129704535007477,"34":0.2252863198518753,"35":0.13460399210453033,"36":-0.056050803512334824,"37":-0.013933996669948101,"38":0.09969290345907211,"39":-0.07942678779363632,"40":-0.13669617474079132,"41":-0.29582977294921875,"42":0.050855331122875214,"43":0.17816691100597382,"44":-0.4193108379840851,"45":0.0778321921825409,"46":-0.05731326714158058,"47":-0.09912987053394318}}},{"0":{"bias":0.7719216346740723,"weights":{"0":-0.3628852069377899,"1":-0.07727818936109543,"2":-0.22974944114685059,"3":-0.027706321328878403,"4":0.026520252227783203,"5":-0.10130162537097931,"6":0.09197499603033066,"7":-0.4272526204586029,"8":-0.01384634431451559,"9":-0.18623937666416168,"10":0.0691177174448967,"11":-0.20399212837219238,"12":0.09876278787851334,"13":-0.4134124517440796,"14":-0.13647562265396118,"15":0.036140233278274536,"16":-0.042252711951732635,"17":0.085393987596035,"18":-0.2181943655014038,"19":0.20265044271945953,"20":0.0459415428340435,"21":0.03616869077086449,"22":0.11703337728977203,"23":0.2267169952392578,"24":-0.07868869602680206,"25":-0.029990792274475098,"26":-0.6467421650886536,"27":0.1050788089632988,"28":-0.10814128816127777,"29":-0.5869116187095642,"30":0.021344248205423355,"31":-0.17508311569690704}},"1":{"bias":-0.05601637437939644,"weights":{"0":0.14550992846488953,"1":0.15467622876167297,"2":-0.12029394507408142,"3":0.11700347065925598,"4":0.03852904587984085,"5":0.16404443979263306,"6":-0.0631895512342453,"7":-0.31236326694488525,"8":0.03703266382217407,"9":-0.1266317367553711,"10":0.23968933522701263,"11":-0.12353141605854034,"12":0.05442426726222038,"13":0.12682585418224335,"14":-0.11249131709337234,"15":-0.02290395461022854,"16":0.10755988955497742,"17":0.2231696993112564,"18":-0.03135877102613449,"19":0.015655353665351868,"20":-0.17071257531642914,"21":-0.11009742319583893,"22":0.16577425599098206,"23":0.04251441732048988,"24":0.14009372889995575,"25":0.19464083015918732,"26":-0.2575564980506897,"27":0.2434891313314438,"28":0.19520753622055054,"29":-0.24807415902614594,"30":-0.14225681126117706,"31":0.23254282772541046}},"2":{"bias":0.3256351053714752,"weights":{"0":0.29223906993865967,"1":0.2763690948486328,"2":0.06378321349620819,"3":0.0981442853808403,"4":0.07795640826225281,"5":0.18009591102600098,"6":0.14635834097862244,"7":0.11951011419296265,"8":0.24341939389705658,"9":0.10203848779201508,"10":0.4983580708503723,"11":-0.17944662272930145,"12":0.014826114289462566,"13":0.4349551498889923,"14":0.18099017441272736,"15":-0.08711123466491699,"16":-0.05591220781207085,"17":-0.5075887441635132,"18":0.5069206357002258,"19":0.15912029147148132,"20":-0.14637351036071777,"21":-0.40834417939186096,"22":0.11731136590242386,"23":-0.6113943457603455,"24":-0.04573329538106918,"25":0.4515460431575775,"26":0.030951915308833122,"27":-0.3790256679058075,"28":-0.03261508047580719,"29":0.3937501013278961,"30":-0.1344449669122696,"31":0.026586269959807396}},"3":{"bias":0.10323824733495712,"weights":{"0":0.03928631916642189,"1":0.07006571441888809,"2":0.11873463541269302,"3":-0.10284917056560516,"4":0.1744503527879715,"5":0.10290976613759995,"6":0.1949484646320343,"7":-0.11165573447942734,"8":-0.0015811637276783586,"9":-0.06915171444416046,"10":-0.08485515415668488,"11":-0.17375552654266357,"12":-0.03914341330528259,"13":-0.1360398679971695,"14":-0.10608037561178207,"15":-0.04763231799006462,"16":0.06046465039253235,"17":-0.13068367540836334,"18":-0.07542691379785538,"19":-0.015615436248481274,"20":-0.04182305186986923,"21":0.07413963228464127,"22":0.05558858439326286,"23":-0.0490214079618454,"24":-0.09561793506145477,"25":-0.1504008173942566,"26":0.07060293108224869,"27":-0.11780840903520584,"28":0.06294532865285873,"29":-0.09752356261014938,"30":0.16291961073875427,"31":-0.09467150270938873}},"4":{"bias":0.5615788102149963,"weights":{"0":-0.16284804046154022,"1":0.06819222122430801,"2":-0.04722915589809418,"3":0.06551478058099747,"4":-0.13680654764175415,"5":0.07821600884199142,"6":0.14279705286026,"7":-0.10983242839574814,"8":-0.01693796180188656,"9":-0.24683122336864471,"10":0.06014060974121094,"11":0.07003890722990036,"12":0.1898222118616104,"13":-0.29397860169410706,"14":0.15639111399650574,"15":0.011427059769630432,"16":-0.07814362645149231,"17":0.03783082962036133,"18":-0.13811595737934113,"19":0.06086622178554535,"20":-0.2632547914981842,"21":0.1152283251285553,"22":0.09212668985128403,"23":0.07210049033164978,"24":-0.033770281821489334,"25":0.007779346313327551,"26":-0.49146050214767456,"27":0.0368160754442215,"28":-0.1404765397310257,"29":-0.5282396674156189,"30":-0.012948989868164062,"31":0.04433700069785118}},"5":{"bias":0.03449709713459015,"weights":{"0":0.0010464726947247982,"1":-0.08228366822004318,"2":-0.017112404108047485,"3":0.31476739048957825,"4":-0.06454360485076904,"5":-0.027278302237391472,"6":0.17765364050865173,"7":0.026874830946326256,"8":-0.18961144983768463,"9":-0.1499682515859604,"10":-0.11876589059829712,"11":0.13868504762649536,"12":0.15963315963745117,"13":-0.1018688902258873,"14":0.13726972043514252,"15":-0.10040304064750671,"16":-0.08379082381725311,"17":0.17140690982341766,"18":0.2003740817308426,"19":-0.043408628553152084,"20":-0.11281248927116394,"21":-0.11624043434858322,"22":0.24547018110752106,"23":-0.15690156817436218,"24":-0.2952090799808502,"25":-0.03911317139863968,"26":0.028255751356482506,"27":-0.24696801602840424,"28":0.1985563486814499,"29":-0.4258250594139099,"30":0.06680752336978912,"31":0.2553676664829254}},"6":{"bias":-0.2155022919178009,"weights":{"0":-0.048987362533807755,"1":0.10058503597974777,"2":0.07835209369659424,"3":-0.16224415600299835,"4":-0.04103804752230644,"5":-0.14391349256038666,"6":-0.17400096356868744,"7":0.18017682433128357,"8":-0.038155630230903625,"9":0.09795783460140228,"10":-0.17676258087158203,"11":-0.11315426975488663,"12":-0.14640359580516815,"13":-0.14687760174274445,"14":0.09545475244522095,"15":0.16529634594917297,"16":0.15076148509979248,"17":-0.06062985211610794,"18":-0.03483079746365547,"19":-0.13242201507091522,"20":-0.14588448405265808,"21":-0.08937899023294449,"22":-0.07192138582468033,"23":0.03312071040272713,"24":-0.19140149652957916,"25":0.11612288653850555,"26":0.2728038430213928,"27":-0.05730725824832916,"28":0.005638558883219957,"29":0.1444813758134842,"30":-0.08359698206186295,"31":-0.496710866689682}},"7":{"bias":-2.1012721061706543,"weights":{"0":0.014667933806777,"1":-0.02456437051296234,"2":-0.16112636029720306,"3":-0.5407863855361938,"4":0.08102693408727646,"5":0.001885695499368012,"6":0.07846925407648087,"7":0.4613196551799774,"8":0.2870387136936188,"9":-0.05005418509244919,"10":-0.18259915709495544,"11":-0.06493677198886871,"12":-0.14571352303028107,"13":-0.10362368077039719,"14":-0.17364871501922607,"15":-0.21140962839126587,"16":-0.18360018730163574,"17":0.48301202058792114,"18":-0.18900519609451294,"19":-0.017182733863592148,"20":0.25911787152290344,"21":0.10811813175678253,"22":-0.3226549029350281,"23":0.5517927408218384,"24":-0.13205446302890778,"25":0.06572305411100388,"26":0.6949222683906555,"27":0.39544233679771423,"28":-0.3096870481967926,"29":-0.007827375084161758,"30":-0.1515783965587616,"31":-0.3825550079345703}},"8":{"bias":-0.3981979191303253,"weights":{"0":0.1779552847146988,"1":0.12092181295156479,"2":0.07944341003894806,"3":0.191191628575325,"4":0.07056258618831635,"5":0.1963072568178177,"6":0.10176557302474976,"7":0.2186608910560608,"8":0.038085803389549255,"9":0.06170160323381424,"10":0.057014964520931244,"11":-0.1089155450463295,"12":0.003860024269670248,"13":0.3590608537197113,"14":-0.08371791988611221,"15":0.04787812381982803,"16":-0.06264007836580276,"17":0.014093101024627686,"18":0.08376286178827286,"19":0.10618539154529572,"20":0.21314476430416107,"21":0.08864894509315491,"22":0.10405564308166504,"23":0.04926444962620735,"24":0.16479134559631348,"25":-0.07969018816947937,"26":0.21767061948776245,"27":-0.09604975581169128,"28":-0.11034714430570602,"29":0.018481526523828506,"30":-0.17616696655750275,"31":-0.1310187727212906}},"9":{"bias":0.21849261224269867,"weights":{"0":-0.036082468926906586,"1":-0.07255763560533524,"2":-0.02831268683075905,"3":-0.18966984748840332,"4":-0.14427998661994934,"5":-0.04905014485120773,"6":-0.14966247975826263,"7":-0.17771326005458832,"8":-0.082883320748806,"9":-0.03433002904057503,"10":-0.11226706206798553,"11":0.010654611513018608,"12":-0.04282461106777191,"13":-0.06238030269742012,"14":0.18648570775985718,"15":-0.09922577440738678,"16":-0.11025519669055939,"17":-0.06036122888326645,"18":-0.1524556577205658,"19":-0.03464951738715172,"20":0.02276644855737686,"21":-0.0005227095098234713,"22":-0.2316824197769165,"23":0.10837148129940033,"24":0.11621398478746414,"25":0.016417577862739563,"26":-0.13988637924194336,"27":0.0985354632139206,"28":0.12852329015731812,"29":-0.10628218203783035,"30":0.19971081614494324,"31":-0.21605820953845978}},"10":{"bias":-0.10062382370233536,"weights":{"0":0.1000746339559555,"1":-0.09240789711475372,"2":0.12770090997219086,"3":-0.11348729580640793,"4":-0.07661674916744232,"5":-0.08265171945095062,"6":-0.027882812544703484,"7":0.10968907177448273,"8":-0.1490963101387024,"9":0.23500071465969086,"10":-0.05389546975493431,"11":-0.10939694941043854,"12":0.1907193511724472,"13":0.2763752341270447,"14":-0.025210214778780937,"15":-0.06432749330997467,"16":-0.00030443852301687,"17":-0.11292202025651932,"18":0.23308779299259186,"19":-0.00508592976257205,"20":-0.068476602435112,"21":-0.05574328079819679,"22":0.20227937400341034,"23":-0.20227639377117157,"24":-0.028582261875271797,"25":0.028833772987127304,"26":0.02145111747086048,"27":-0.07488808780908585,"28":-0.0061894007958471775,"29":-0.09604752063751221,"30":-0.0657397136092186,"31":0.09695786237716675}},"11":{"bias":0.19499404728412628,"weights":{"0":-0.04713728651404381,"1":0.010598784312605858,"2":-0.022285720333456993,"3":-0.04924444854259491,"4":-0.1393260359764099,"5":-0.193699449300766,"6":0.14342264831066132,"7":-0.051273413002491,"8":0.2173326462507248,"9":-0.19101405143737793,"10":0.09472369402647018,"11":0.20371708273887634,"12":-0.0156585443764925,"13":-0.01909257285296917,"14":-0.15566681325435638,"15":0.18291409313678741,"16":0.08682900667190552,"17":-0.050585243850946426,"18":-0.1541193276643753,"19":0.061167001724243164,"20":-0.04945928603410721,"21":0.13252133131027222,"22":0.025013186037540436,"23":-0.06378117203712463,"24":0.018601583316922188,"25":0.041356880217790604,"26":-0.17882829904556274,"27":-0.17987209558486938,"28":0.024797093123197556,"29":0.031625956296920776,"30":-0.022186923772096634,"31":-0.11915096640586853}},"12":{"bias":-0.3373330235481262,"weights":{"0":-0.18343856930732727,"1":0.02416127175092697,"2":-0.1660127490758896,"3":-0.3292320668697357,"4":0.1543016880750656,"5":-0.008877938613295555,"6":-0.15332281589508057,"7":-0.10107410699129105,"8":-0.24941755831241608,"9":-0.12418311089277267,"10":-0.19118466973304749,"11":0.1694328784942627,"12":0.11152181029319763,"13":-0.16191361844539642,"14":-0.04989468306303024,"15":-0.0968438908457756,"16":0.04824959114193916,"17":-0.26222068071365356,"18":-0.20392285287380219,"19":0.33603978157043457,"20":-0.06423453241586685,"21":0.28811559081077576,"22":-0.030711892992258072,"23":-0.20824560523033142,"24":0.07521401345729828,"25":0.045354872941970825,"26":0.38445284962654114,"27":0.3323708176612854,"28":0.09631198644638062,"29":-0.05608844757080078,"30":-0.06148639693856239,"31":-0.0856880396604538}},"13":{"bias":-0.6851972937583923,"weights":{"0":0.11459852010011673,"1":0.10058357566595078,"2":0.17954015731811523,"3":-0.06837108731269836,"4":-0.19691671431064606,"5":-0.03278704360127449,"6":-0.1782934069633484,"7":-0.08723073452711105,"8":-0.17586979269981384,"9":0.1558454930782318,"10":0.12488958984613419,"11":-0.0020497189834713936,"12":-0.05780557170510292,"13":0.1854982227087021,"14":0.10049688816070557,"15":-0.09413323551416397,"16":-0.18905897438526154,"17":-0.008235258981585503,"18":0.16698867082595825,"19":0.28078630566596985,"20":-0.04594419151544571,"21":0.22380539774894714,"22":0.0360015407204628,"23":-0.00843642745167017,"24":0.12530216574668884,"25":-0.09337582439184189,"26":0.5908631086349487,"27":0.2421249896287918,"28":0.06181694567203522,"29":-0.1302497386932373,"30":-0.19033022224903107,"31":0.02282489277422428}},"14":{"bias":-0.44705265760421753,"weights":{"0":0.08737565577030182,"1":-0.08415113389492035,"2":-0.05636775866150856,"3":0.22410888969898224,"4":-0.014523761346936226,"5":-0.1492590457201004,"6":0.051792848855257034,"7":0.20044845342636108,"8":0.19497515261173248,"9":-0.07672880589962006,"10":0.1465367078781128,"11":-0.0476832278072834,"12":-0.13738234341144562,"13":0.2796838879585266,"14":-0.19579218327999115,"15":0.15329129993915558,"16":-0.16486400365829468,"17":0.2827546298503876,"18":0.01717148907482624,"19":-0.23962268233299255,"20":0.09655541181564331,"21":-0.20469823479652405,"22":-0.26163333654403687,"23":0.23014576733112335,"24":-0.0888269692659378,"25":-0.1628301590681076,"26":-0.02847774513065815,"27":-0.33248406648635864,"28":-0.1378883570432663,"29":-0.001672960352152586,"30":-0.14998334646224976,"31":-0.1832846999168396}},"15":{"bias":-0.12948811054229736,"weights":{"0":0.089022196829319,"1":-0.10429047048091888,"2":0.12977975606918335,"3":0.027910251170396805,"4":-0.04869110882282257,"5":0.1701021045446396,"6":-0.0947156473994255,"7":0.025474857538938522,"8":-0.12620969116687775,"9":-0.1582447737455368,"10":-0.040650416165590286,"11":-0.08790273219347,"12":0.07812868803739548,"13":-0.004156508482992649,"14":-0.10272759944200516,"15":-0.12246088683605194,"16":-0.05871660262346268,"17":-0.07088333368301392,"18":0.00032494429615326226,"19":0.17602546513080597,"20":0.15746186673641205,"21":-0.028173591941595078,"22":0.14909349381923676,"23":-0.06424807012081146,"24":-0.10328027606010437,"25":-0.007279783952981234,"26":-0.11452367901802063,"27":0.10817579180002213,"28":-0.1635299175977707,"29":-0.03235699236392975,"30":-0.1765332967042923,"31":0.1411689817905426}}},{"0":{"bias":0.6111741065979004,"weights":{"0":0.415386825799942,"1":0.12953691184520721,"2":-0.41234761476516724,"3":0.019895585253834724,"4":0.32775452733039856,"5":0.3714083135128021,"6":0.1373814046382904,"7":-0.24686536192893982,"8":-0.05579925328493118,"9":0.36558377742767334,"10":0.17501232028007507,"11":-0.04828403517603874,"12":-0.22832532227039337,"13":-0.1660887748003006,"14":-0.17626628279685974,"15":-0.016810182482004166}},"1":{"bias":-0.3936598002910614,"weights":{"0":0.2576735019683838,"1":0.35071343183517456,"2":0.5934527516365051,"3":-0.17946363985538483,"4":0.21580582857131958,"5":-0.04082915186882019,"6":0.3256770074367523,"7":0.4838256537914276,"8":0.1195424273610115,"9":-0.03195991739630699,"10":0.3598044812679291,"11":-0.18619638681411743,"12":-0.2372312843799591,"13":0.06440087407827377,"14":0.05174945294857025,"15":-0.10865860432386398}},"2":{"bias":-0.22273485362529755,"weights":{"0":0.10977498441934586,"1":0.022094115614891052,"2":-0.007728154305368662,"3":-0.18212760984897614,"4":-0.1685609519481659,"5":0.15912644565105438,"6":0.11829553544521332,"7":0.0894068107008934,"8":-0.006243830546736717,"9":-0.0844106450676918,"10":-0.10319847613573074,"11":0.1813604086637497,"12":-0.16674314439296722,"13":-0.09580817073583603,"14":0.11471595615148544,"15":-0.0013882835628464818}},"3":{"bias":-0.1855621039867401,"weights":{"0":-0.056709662079811096,"1":0.13305538892745972,"2":-0.07611782103776932,"3":0.16438670456409454,"4":-0.14968526363372803,"5":-0.1961011439561844,"6":0.11581481993198395,"7":0.06479623913764954,"8":-0.015972677618265152,"9":-0.19088637828826904,"10":0.0962059423327446,"11":-0.08005393296480179,"12":-0.02540550008416176,"13":-0.3341483175754547,"14":0.392937034368515,"15":-0.1252179741859436}}},{"0":{"bias":0.39856135845184326,"weights":{"0":0.4259593188762665,"1":-0.27445167303085327,"2":0.13299578428268433,"3":0.15409302711486816}}}],"outputLookup":false,"inputLookup":false,"activation":"relu","trainOpts":{"iterations":500,"errorThresh":0.01,"log":true,"logPeriod":1,"learningRate":0.03,"momentum":0.1,"callbackPeriod":10,"timeout":21600000}}