{"sizes":[33,36,16,9,1],"layers":[{"0":{},"1":{},"2":{},"3":{},"4":{},"5":{},"6":{},"7":{},"8":{},"9":{},"10":{},"11":{},"12":{},"13":{},"14":{},"15":{},"16":{},"17":{},"18":{},"19":{},"20":{},"21":{},"22":{},"23":{},"24":{},"25":{},"26":{},"27":{},"28":{},"29":{},"30":{},"31":{},"32":{}},{"0":{"bias":-0.046875011175870895,"weights":{"0":-0.06143863499164581,"1":-0.08292066305875778,"2":-0.04478544741868973,"3":-0.04153299331665039,"4":-0.06732654571533203,"5":-0.18456070125102997,"6":0.09884417057037354,"7":0.14143683016300201,"8":-0.2103731781244278,"9":-0.09439057856798172,"10":0.1803997904062271,"11":0.17460818588733673,"12":0.09557640552520752,"13":0.16921837627887726,"14":-0.01842391863465309,"15":0.11313041299581528,"16":-0.07191654294729233,"17":0.09420179575681686,"18":-0.0683334469795227,"19":-0.19651712477207184,"20":0.134036585688591,"21":-0.2182125598192215,"22":-0.17136569321155548,"23":-0.18782293796539307,"24":-0.13373631238937378,"25":0.16828498244285583,"26":-0.0699831023812294,"27":0.17716221511363983,"28":-0.16500045359134674,"29":-0.0785258561372757,"30":0.1253129094839096,"31":0.1590992957353592,"32":-0.17457592487335205}},"1":{"bias":-0.09284209460020065,"weights":{"0":0.1463388055562973,"1":-0.17297206819057465,"2":-0.020439350977540016,"3":-0.16736391186714172,"4":-0.036532923579216,"5":-0.07074055075645447,"6":0.006855761632323265,"7":0.15781064331531525,"8":-0.15560820698738098,"9":-0.18488550186157227,"10":-0.029030349105596542,"11":-0.1738341599702835,"12":0.032953448593616486,"13":-0.07930584996938705,"14":0.14755812287330627,"15":-0.17664720118045807,"16":-0.024771612137556076,"17":-0.002399253658950329,"18":0.15525265038013458,"19":0.14028812944889069,"20":-0.15448927879333496,"21":-0.09240901470184326,"22":-0.08176040649414062,"23":0.16863016784191132,"24":-0.18118688464164734,"25":0.15717081725597382,"26":-0.053172651678323746,"27":-0.0586918406188488,"28":-0.024696804583072662,"29":-0.026720941066741943,"30":-0.02231595851480961,"31":-0.13586916029453278,"32":0.1590217500925064}},"2":{"bias":0.07173563539981842,"weights":{"0":0.07662814855575562,"1":-0.15790686011314392,"2":0.1336597353219986,"3":0.026445291936397552,"4":0.07823420315980911,"5":0.005280263721942902,"6":-0.22892719507217407,"7":-0.2229054719209671,"8":0.031221522018313408,"9":0.1542326807975769,"10":-0.08438580483198166,"11":-0.09106132388114929,"12":0.10623925924301147,"13":0.0599932000041008,"14":0.14316047728061676,"15":-0.09825842827558517,"16":0.15944191813468933,"17":0.05530700460076332,"18":-0.14106856286525726,"19":-0.08004312217235565,"20":-0.04816518723964691,"21":-0.08784140646457672,"22":0.03961743786931038,"23":-0.12905831634998322,"24":-0.06334090232849121,"25":-0.22757212817668915,"26":0.013069318607449532,"27":0.14335376024246216,"28":-0.0332987979054451,"29":-0.185249462723732,"30":-0.20562250912189484,"31":0.0018107487121596932,"32":0.0948084145784378}},"3":{"bias":1.3608940839767456,"weights":{"0":0.017263563349843025,"1":0.1353769600391388,"2":0.04277351498603821,"3":0.12860505282878876,"4":0.16874898970127106,"5":0.07585788518190384,"6":0.40818020701408386,"7":0.27355965971946716,"8":0.13058176636695862,"9":0.2669029235839844,"10":0.13879957795143127,"11":0.03104233741760254,"12":0.1359844207763672,"13":0.11842941492795944,"14":0.2581482529640198,"15":0.005037597846239805,"16":0.07650233060121536,"17":-0.009154078550636768,"18":0.02778230980038643,"19":0.07053957879543304,"20":0.06742164492607117,"21":0.19552041590213776,"22":0.1296062469482422,"23":0.18921172618865967,"24":-1.9072386026382446,"25":-0.01325146108865738,"26":0.06213565170764923,"27":-0.3006836175918579,"28":-4.459340572357178,"29":0.18280711770057678,"30":0.19820620119571686,"31":0.13865649700164795,"32":0.07529859244823456}},"4":{"bias":0.09490416944026947,"weights":{"0":0.1627160608768463,"1":-0.1640821248292923,"2":0.02292490564286709,"3":0.16973136365413666,"4":0.13734476268291473,"5":0.0753655880689621,"6":-0.059120774269104004,"7":-0.04641144350171089,"8":-0.16237400472164154,"9":-0.12490174919366837,"10":-0.06016302853822708,"11":-0.11295417696237564,"12":-0.04282279312610626,"13":-0.21437112987041473,"14":-0.06499884277582169,"15":0.07148188352584839,"16":-0.03376325964927673,"17":-0.23500999808311462,"18":-0.23083491623401642,"19":-0.006092272233217955,"20":0.04709208384156227,"21":0.015134740620851517,"22":0.03723696991801262,"23":-0.18775391578674316,"24":-0.10150517523288727,"25":0.10328948497772217,"26":0.13818685710430145,"27":0.11909458041191101,"28":-0.06360264122486115,"29":0.12429293990135193,"30":-0.07652648538351059,"31":-0.17766591906547546,"32":0.06185833364725113}},"5":{"bias":-1.10374116897583,"weights":{"0":0.31876495480537415,"1":-0.1821456104516983,"2":-0.19432084262371063,"3":1.5267419815063477,"4":0.004270545672625303,"5":-0.18216495215892792,"6":-0.1443379819393158,"7":0.16374318301677704,"8":-2.0297322273254395,"9":-0.039680175483226776,"10":-0.07364042103290558,"11":-0.5241779088973999,"12":4.826389312744141,"13":-0.1023043692111969,"14":-0.05077596381306648,"15":-0.10656637698411942,"16":-0.371160089969635,"17":-0.34550926089286804,"18":-0.15211668610572815,"19":-0.4503903090953827,"20":-0.23755894601345062,"21":-0.08036575466394424,"22":-0.10352768003940582,"23":-0.11905235052108765,"24":-0.15216967463493347,"25":-0.09394437074661255,"26":-0.06560007482767105,"27":-0.05829522758722305,"28":-0.1334441751241684,"29":-0.09829077124595642,"30":-0.044608671218156815,"31":-0.03734702244400978,"32":-0.05148409679532051}},"6":{"bias":-0.01851556822657585,"weights":{"0":0.10810808092355728,"1":-0.06647080183029175,"2":0.14292092621326447,"3":-0.1011807844042778,"4":-0.12280240654945374,"5":-0.06772144138813019,"6":-0.0528281033039093,"7":0.018480271100997925,"8":-0.12561459839344025,"9":-0.027533354237675667,"10":-0.055233415216207504,"11":-0.029240580275654793,"12":-0.11663055419921875,"13":-0.1642622947692871,"14":0.19441577792167664,"15":0.12964306771755219,"16":-0.050421714782714844,"17":0.12535931169986725,"18":-0.1414291113615036,"19":-0.027172569185495377,"20":0.01908668875694275,"21":0.15435956418514252,"22":-0.08595940470695496,"23":0.18966567516326904,"24":-0.1042376384139061,"25":-0.010764522477984428,"26":0.133036807179451,"27":-0.11277521401643753,"28":-0.019812414422631264,"29":-0.07598081976175308,"30":-0.003879653289914131,"31":-0.01424545980989933,"32":-0.21117645502090454}},"7":{"bias":-0.13062016665935516,"weights":{"0":-0.029450099915266037,"1":-0.12214308232069016,"2":-0.1449955403804779,"3":-0.027895523235201836,"4":-0.023710133507847786,"5":-0.0848287045955658,"6":0.1079661026597023,"7":-0.10013272613286972,"8":-0.06243745982646942,"9":-0.14129401743412018,"10":-0.00010014038707595319,"11":0.14889788627624512,"12":0.1992521733045578,"13":0.1314380019903183,"14":-0.01344471238553524,"15":0.18015071749687195,"16":-0.16393767297267914,"17":0.12058228254318237,"18":-0.1162959411740303,"19":0.08569963276386261,"20":0.18832974135875702,"21":0.1507338434457779,"22":-0.06532555818557739,"23":-0.16867372393608093,"24":-0.02649063803255558,"25":0.060518644750118256,"26":-0.10387738794088364,"27":-0.11354177445173264,"28":-0.09345202893018723,"29":-0.09926050156354904,"30":0.10239873081445694,"31":0.0432678759098053,"32":-0.04174870625138283}},"8":{"bias":-6.383923530578613,"weights":{"0":-0.043956026434898376,"1":0.36237743496894836,"2":0.4021540582180023,"3":0.20972976088523865,"4":0.0876789540052414,"5":0.2676585614681244,"6":0.2172301858663559,"7":0.3246610760688782,"8":0.20048080384731293,"9":0.2783353626728058,"10":0.48436304926872253,"11":0.3386053740978241,"12":0.23605382442474365,"13":0.48242273926734924,"14":0.36793509125709534,"15":0.34213343262672424,"16":0.09530626982450485,"17":0.736977219581604,"18":0.8759250640869141,"19":0.3771008849143982,"20":0.19069451093673706,"21":-0.08981427550315857,"22":1.2837833166122437,"23":0.41285598278045654,"24":0.8086597919464111,"25":2.9932713508605957,"26":0.7844606637954712,"27":0.5750300884246826,"28":0.15665598213672638,"29":-0.5307588577270508,"30":-0.009697312489151955,"31":0.02743080072104931,"32":0.09983722120523453}},"9":{"bias":-0.026499401777982712,"weights":{"0":-0.09456557780504227,"1":-0.029864810407161713,"2":0.028047358617186546,"3":-0.0291259977966547,"4":-0.04060336947441101,"5":-0.19039878249168396,"6":-0.15087024867534637,"7":0.038378357887268066,"8":0.11630655825138092,"9":-0.1318596601486206,"10":-0.01933443173766136,"11":-0.1540255844593048,"12":0.09655922651290894,"13":-0.0672883540391922,"14":0.09371916204690933,"15":0.19696341454982758,"16":0.09776801615953445,"17":-0.02435559406876564,"18":-0.15020237863063812,"19":0.062327709048986435,"20":-0.1100117415189743,"21":-0.13748833537101746,"22":0.15917034447193146,"23":-0.19598637521266937,"24":-0.15156245231628418,"25":0.008029489777982235,"26":-0.09499331563711166,"27":-0.07182108610868454,"28":-0.13553956151008606,"29":0.0004704942984972149,"30":0.12056853622198105,"31":-0.13885119557380676,"32":0.14811745285987854}},"10":{"bias":1.6130506992340088,"weights":{"0":0.00119260314386338,"1":0.03785788640379906,"2":-2.6582491397857666,"3":-2.9546799659729004,"4":1.8489948511123657,"5":-0.6494311094284058,"6":-0.26312726736068726,"7":-2.160616874694824,"8":0.27182066440582275,"9":-0.2354576289653778,"10":-0.15977467596530914,"11":0.270781010389328,"12":0.3695569634437561,"13":-0.08230506628751755,"14":-0.12933437526226044,"15":0.5445971488952637,"16":0.5444626212120056,"17":0.03811320289969444,"18":0.1786833256483078,"19":0.4353947639465332,"20":-0.2242572158575058,"21":0.38210031390190125,"22":0.19508521258831024,"23":0.3891550600528717,"24":0.299263060092926,"25":-0.2158176153898239,"26":0.08109483122825623,"27":0.29238638281822205,"28":0.2270369678735733,"29":0.04780552163720131,"30":-0.2980385422706604,"31":-0.20842678844928741,"32":-0.05172302573919296}},"11":{"bias":-0.9323168992996216,"weights":{"0":1.647385597229004,"1":-0.003946070559322834,"2":-0.1231888085603714,"3":0.0035765378270298243,"4":0.04921264201402664,"5":0.29899463057518005,"6":-0.039238523691892624,"7":-0.16302677989006042,"8":-0.08316317945718765,"9":0.24739369750022888,"10":0.04616522789001465,"11":0.022254616022109985,"12":0.31843486428260803,"13":0.09009397029876709,"14":-0.06783933192491531,"15":0.00672920560464263,"16":0.1002538725733757,"17":-0.07327552884817123,"18":0.027617035433650017,"19":-0.010043487884104252,"20":-0.012529954314231873,"21":-0.25176772475242615,"22":0.05358056724071503,"23":0.0102016506716609,"24":-0.2599186599254608,"25":0.23713770508766174,"26":0.059642642736434937,"27":0.08912501484155655,"28":-0.10341740399599075,"29":0.20426347851753235,"30":-0.0005878403899259865,"31":0.1602293848991394,"32":0.09568987786769867}},"12":{"bias":-5.293788909912109,"weights":{"0":-0.008361505344510078,"1":0.20561333000659943,"2":0.11682824790477753,"3":0.01564178802073002,"4":0.10078340768814087,"5":0.3502267897129059,"6":0.15242110192775726,"7":0.42158329486846924,"8":0.33837246894836426,"9":0.23388679325580597,"10":0.24181093275547028,"11":0.37020406126976013,"12":4.006801128387451,"13":0.14020061492919922,"14":0.2333461195230484,"15":0.24377430975437164,"16":2.220047950744629,"17":0.15013568103313446,"18":0.1261635422706604,"19":-0.1714422106742859,"20":0.18818515539169312,"21":0.16037315130233765,"22":0.051497235894203186,"23":0.3021089434623718,"24":0.04447956010699272,"25":0.17608407139778137,"26":-0.012523094192147255,"27":0.11764178425073624,"28":-0.06312964111566544,"29":0.30371859669685364,"30":-0.10931125283241272,"31":0.07691441476345062,"32":0.07939454913139343}},"13":{"bias":-10.175682067871094,"weights":{"0":-0.15490497648715973,"1":0.6271404027938843,"2":0.4490853548049927,"3":0.5340733528137207,"4":0.39161646366119385,"5":0.6647574305534363,"6":0.6720107197761536,"7":0.5005033016204834,"8":0.3420315980911255,"9":0.6691423654556274,"10":0.6642168164253235,"11":0.3170185685157776,"12":0.22339732944965363,"13":0.917879581451416,"14":0.7558232545852661,"15":0.31683027744293213,"16":0.19960637390613556,"17":0.5418588519096375,"18":0.5064198970794678,"19":0.3637888431549072,"20":0.2067355513572693,"21":2.773808717727661,"22":0.7705361843109131,"23":0.33425965905189514,"24":0.45815783739089966,"25":0.673157811164856,"26":0.6350760459899902,"27":0.5184223055839539,"28":0.33903566002845764,"29":3.1469268798828125,"30":1.009469747543335,"31":0.4052049219608307,"32":0.32545188069343567}},"14":{"bias":-0.2786828279495239,"weights":{"0":-0.069625623524189,"1":0.0883575975894928,"2":-0.09077677875757217,"3":-0.1238977238535881,"4":-0.0647578313946724,"5":0.046095866709947586,"6":-0.11752882599830627,"7":0.12374190241098404,"8":0.013257812708616257,"9":0.019800929352641106,"10":0.09352633357048035,"11":-0.13091711699962616,"12":0.13382038474082947,"13":0.11251522600650787,"14":0.1024974137544632,"15":0.13880693912506104,"16":0.014528739266097546,"17":0.025775309652090073,"18":-0.08418814837932587,"19":-0.09411970525979996,"20":-0.18345972895622253,"21":-0.08463132381439209,"22":-0.13374371826648712,"23":0.1420779973268509,"24":-0.06855177134275436,"25":-0.16179685294628143,"26":0.09257689863443375,"27":0.04707489535212517,"28":-0.008055010810494423,"29":0.13741014897823334,"30":0.10048539191484451,"31":-0.07008729130029678,"32":0.12285380810499191}},"15":{"bias":-0.059906162321567535,"weights":{"0":0.16204190254211426,"1":0.19040802121162415,"2":-0.0592215396463871,"3":0.0035785259678959846,"4":-0.07885672897100449,"5":0.1119019016623497,"6":-0.1453264355659485,"7":0.011316413059830666,"8":0.146889328956604,"9":0.008093064650893211,"10":-0.1104569286108017,"11":-0.11078350245952606,"12":-0.18554510176181793,"13":-0.1661754995584488,"14":-0.046702124178409576,"15":-0.003684661816805601,"16":0.15667195618152618,"17":0.009428936056792736,"18":-0.032134056091308594,"19":-0.05703679472208023,"20":-0.007376561406999826,"21":-0.16673630475997925,"22":0.0707426443696022,"23":-0.1283310204744339,"24":-0.19057151675224304,"25":0.1838451772928238,"26":-0.19436244666576385,"27":0.17428885400295258,"28":-0.13104230165481567,"29":0.03243395686149597,"30":0.08264336735010147,"31":-0.11898192763328552,"32":-0.11669060587882996}},"16":{"bias":-0.1007867306470871,"weights":{"0":0.13557659089565277,"1":0.0040377117693424225,"2":-0.1964343786239624,"3":-0.12770502269268036,"4":0.05472998321056366,"5":-0.10148142278194427,"6":0.043180469423532486,"7":0.18707890808582306,"8":-0.1245889961719513,"9":-0.08891457319259644,"10":0.16664765775203705,"11":0.19221574068069458,"12":-0.15709750354290009,"13":-0.0489199161529541,"14":-0.17899318039417267,"15":-0.14189274609088898,"16":-0.1800844818353653,"17":0.056976720690727234,"18":-0.20213906466960907,"19":-0.10659699141979218,"20":-0.15967075526714325,"21":0.18109501898288727,"22":0.11704570055007935,"23":-0.05127689987421036,"24":-0.06573886424303055,"25":0.17371101677417755,"26":0.08460555970668793,"27":0.09303555637598038,"28":-0.18119336664676666,"29":0.12359091639518738,"30":-0.027059780433773994,"31":0.12296751886606216,"32":-0.07817085087299347}},"17":{"bias":4.0126633644104,"weights":{"0":5.032886981964111,"1":-0.08408565074205399,"2":-0.5104652047157288,"3":-0.13588832318782806,"4":-0.4028836488723755,"5":-0.5371935367584229,"6":-0.1413315087556839,"7":-0.2524980306625366,"8":-0.18684716522693634,"9":-0.586275577545166,"10":-0.32969534397125244,"11":-0.4382452666759491,"12":-0.46581801772117615,"13":-0.5651789307594299,"14":-0.7848377823829651,"15":-0.43670812249183655,"16":-0.6141709685325623,"17":-0.31084516644477844,"18":-0.5912594795227051,"19":-0.8669043183326721,"20":-0.8034459352493286,"21":0.8214035630226135,"22":-0.41378772258758545,"23":-0.5288006067276001,"24":-0.5860851407051086,"25":-0.924534797668457,"26":-0.38002169132232666,"27":-1.2222583293914795,"28":-1.2436624765396118,"29":-0.725816011428833,"30":-1.7152222394943237,"31":-0.6004366278648376,"32":-0.48947563767433167}},"18":{"bias":-21.42325782775879,"weights":{"0":-0.3412668704986572,"1":1.4538402557373047,"2":1.5162323713302612,"3":1.8216139078140259,"4":1.790111780166626,"5":1.4644509553909302,"6":1.0793426036834717,"7":0.5367772579193115,"8":1.4577090740203857,"9":1.0944815874099731,"10":1.1279327869415283,"11":1.3752102851867676,"12":1.855089783668518,"13":1.8284798860549927,"14":1.0444718599319458,"15":1.3209229707717896,"16":1.2972025871276855,"17":1.7521328926086426,"18":1.3578341007232666,"19":1.7300022840499878,"20":2.529837131500244,"21":1.3536734580993652,"22":1.1929067373275757,"23":1.4564894437789917,"24":1.4635069370269775,"25":0.7095104455947876,"26":1.104337215423584,"27":1.7246301174163818,"28":2.119472026824951,"29":0.919969379901886,"30":1.6230124235153198,"31":1.0617668628692627,"32":1.2392268180847168}},"19":{"bias":-12.520186424255371,"weights":{"0":-0.06139435991644859,"1":0.24225696921348572,"2":-0.28988075256347656,"3":-0.04323892667889595,"4":0.3534437119960785,"5":1.0861716270446777,"6":1.758880615234375,"7":2.9621100425720215,"8":1.114700198173523,"9":1.30564546585083,"10":1.3896561861038208,"11":1.2392878532409668,"12":0.5551024079322815,"13":0.6163120865821838,"14":1.7589553594589233,"15":1.2704808712005615,"16":1.4483755826950073,"17":-0.17178599536418915,"18":0.41248223185539246,"19":0.48888087272644043,"20":0.3866528868675232,"21":0.7214624285697937,"22":0.9160670638084412,"23":0.8348214030265808,"24":0.563233494758606,"25":0.7984005212783813,"26":0.8583123087882996,"27":0.7600857615470886,"28":0.5999455451965332,"29":0.3471124768257141,"30":0.6904117465019226,"31":0.6891060471534729,"32":0.3811352550983429}},"20":{"bias":4.289324760437012,"weights":{"0":5.3085784912109375,"1":-2.288214683532715,"2":-0.4954526424407959,"3":-0.2160048931837082,"4":-0.23389698565006256,"5":-0.8670551180839539,"6":-1.6783685684204102,"7":-0.1547330915927887,"8":-0.27514272928237915,"9":-0.9267815351486206,"10":-0.5870836973190308,"11":-0.28747546672821045,"12":-0.30998924374580383,"13":-1.2139625549316406,"14":-0.6041733622550964,"15":-0.6118558049201965,"16":-0.27220475673675537,"17":-0.500694990158081,"18":-0.37236106395721436,"19":-0.13988150656223297,"20":-0.5109938383102417,"21":-0.9470484852790833,"22":-0.608863890171051,"23":-0.47060447931289673,"24":-0.4111539423465729,"25":-0.23210002481937408,"26":-0.5066218376159668,"27":-0.23111537098884583,"28":-0.3347771465778351,"29":-0.5902719497680664,"30":-0.7092009782791138,"31":-0.5464071035385132,"32":-0.4372937083244324}},"21":{"bias":3.3182621002197266,"weights":{"0":4.257674217224121,"1":-0.08838164061307907,"2":-0.37517979741096497,"3":-1.8183070421218872,"4":-1.591306447982788,"5":-0.2368483692407608,"6":-0.03946241736412048,"7":-0.4289880394935608,"8":-1.3948489427566528,"9":0.05372112989425659,"10":-0.2412419319152832,"11":-0.9938650131225586,"12":-1.0591800212860107,"13":-0.06807757169008255,"14":-0.05769295617938042,"15":-0.32542330026626587,"16":-0.2943085730075836,"17":0.03640703111886978,"18":-0.024331361055374146,"19":-0.38628077507019043,"20":-0.9468216896057129,"21":-0.1861705631017685,"22":-0.1431247740983963,"23":-0.4727020263671875,"24":-0.4738069772720337,"25":0.04247942939400673,"26":-0.32974302768707275,"27":-0.3546845018863678,"28":-0.6419342160224915,"29":-0.1578311324119568,"30":-0.4532020390033722,"31":-0.5969688296318054,"32":-0.6057679653167725}},"22":{"bias":-4.006885051727295,"weights":{"0":-0.01722479984164238,"1":0.17865531146526337,"2":0.20347906649112701,"3":0.10237255692481995,"4":0.03316838666796684,"5":4.174417495727539,"6":0.15816637873649597,"7":-0.006131564266979694,"8":-0.005364018026739359,"9":0.8235732316970825,"10":0.01725313812494278,"11":0.06339287012815475,"12":0.030172964558005333,"13":0.5536487102508545,"14":0.28749939799308777,"15":0.10356759279966354,"16":-0.026662714779376984,"17":0.35756850242614746,"18":0.5536941885948181,"19":-0.0017232878599315882,"20":0.004264206159859896,"21":0.22069664299488068,"22":0.1671721190214157,"23":0.01845325343310833,"24":0.05606897547841072,"25":0.18342070281505585,"26":0.007770508527755737,"27":0.02249380573630333,"28":-0.010144797153770924,"29":0.03461291640996933,"30":-0.137679323554039,"31":0.014660314656794071,"32":-0.033216215670108795}},"23":{"bias":2.863210439682007,"weights":{"0":3.5984950065612793,"1":-0.00971510075032711,"2":-0.5234181880950928,"3":-0.16299986839294434,"4":-0.057282689958810806,"5":-0.2511995732784271,"6":-0.02906656637787819,"7":-0.09641088545322418,"8":-0.13483436405658722,"9":-0.1447954624891281,"10":-0.39746373891830444,"11":-0.06440386921167374,"12":-0.3305441439151764,"13":-0.12530474364757538,"14":0.08760640025138855,"15":-0.028062667697668076,"16":-0.18869222700595856,"17":-1.1997284889221191,"18":-0.2963055670261383,"19":-0.426582396030426,"20":-0.3435424864292145,"21":-3.3549742698669434,"22":-0.3755229711532593,"23":-0.2682311534881592,"24":-0.2993083894252777,"25":-0.30717241764068604,"26":-0.7926841378211975,"27":-0.35292327404022217,"28":-0.4007002115249634,"29":-0.5879063010215759,"30":-0.7488783597946167,"31":-0.1449720710515976,"32":-0.13026098906993866}},"24":{"bias":-1.739042043685913,"weights":{"0":-0.46979084610939026,"1":0.07733812928199768,"2":-0.006788275204598904,"3":-0.0990118533372879,"4":0.2269640564918518,"5":0.3990924656391144,"6":0.018773214891552925,"7":0.14100731909275055,"8":0.474978506565094,"9":0.20692142844200134,"10":0.30865606665611267,"11":0.8883206844329834,"12":0.38674667477607727,"13":0.3911484181880951,"14":0.11327540874481201,"15":0.7222402691841125,"16":0.37017175555229187,"17":0.7129623889923096,"18":0.6731117963790894,"19":0.4436076581478119,"20":0.464129775762558,"21":-0.7901806235313416,"22":0.2057758867740631,"23":0.17312774062156677,"24":0.7058935761451721,"25":0.15276117622852325,"26":-0.7177907228469849,"27":0.1702469140291214,"28":-0.26490989327430725,"29":0.5196914076805115,"30":-2.592468023300171,"31":-0.33621183037757874,"32":0.6069351434707642}},"25":{"bias":0.05383734405040741,"weights":{"0":0.029400190338492393,"1":0.02000304125249386,"2":0.009282996878027916,"3":-0.027562880888581276,"4":-0.06795381009578705,"5":0.07659418880939484,"6":0.0877561867237091,"7":0.11147992312908173,"8":0.10536351799964905,"9":0.10868143290281296,"10":0.08052132278680801,"11":-0.015439487062394619,"12":-0.016996219754219055,"13":0.1888313591480255,"14":0.11626681685447693,"15":0.00967336818575859,"16":0.08465886116027832,"17":0.2915181815624237,"18":0.12652097642421722,"19":0.021393612027168274,"20":0.24340620636940002,"21":0.03714066743850708,"22":0.18762949109077454,"23":0.06631037592887878,"24":-2.6817421913146973,"25":0.19513481855392456,"26":0.13890981674194336,"27":-2.3300390243530273,"28":0.9058928489685059,"29":0.05384160578250885,"30":-0.010468997992575169,"31":0.4059339761734009,"32":0.67375248670578}},"26":{"bias":-0.09219948947429657,"weights":{"0":-0.0769638866186142,"1":-0.048362065106630325,"2":0.014629808254539967,"3":-0.04967036470770836,"4":0.11138201504945755,"5":-0.021782930940389633,"6":-0.0061787706799805164,"7":-0.13431458175182343,"8":0.06135716289281845,"9":0.02512379176914692,"10":-0.18928374350070953,"11":-0.041573718190193176,"12":0.049601029604673386,"13":-0.07974239438772202,"14":0.15929670631885529,"15":-0.0928373858332634,"16":-0.04850717633962631,"17":-0.13694696128368378,"18":0.149262934923172,"19":0.18748950958251953,"20":0.13617940247058868,"21":-0.1837725043296814,"22":0.1276131123304367,"23":0.08079563826322556,"24":-0.015913529321551323,"25":0.14886103570461273,"26":-0.06993608921766281,"27":-0.08084970712661743,"28":-0.1749051958322525,"29":-0.040460001677274704,"30":-0.0067503429017961025,"31":-0.18339738249778748,"32":-0.18767444789409637}},"27":{"bias":2.2764205932617188,"weights":{"0":-0.020715393126010895,"1":-0.3682909905910492,"2":-0.01891513168811798,"3":-1.7189462184906006,"4":-1.642446756362915,"5":-0.28891170024871826,"6":-0.3335806429386139,"7":-0.4268309772014618,"8":0.7242096662521362,"9":-0.519333004951477,"10":0.06053232029080391,"11":-0.19816020131111145,"12":0.6039013266563416,"13":-0.5705288648605347,"14":-0.3708389699459076,"15":-0.02268841676414013,"16":2.9733049869537354,"17":-0.0008404492982663214,"18":-0.10591601580381393,"19":-0.1144932210445404,"20":1.1796720027923584,"21":-0.8158722519874573,"22":-0.2615685760974884,"23":-0.2665170729160309,"24":-0.37819817662239075,"25":0.0030819287057965994,"26":-0.41728928685188293,"27":-0.22695113718509674,"28":-0.1766027957201004,"29":-0.47985708713531494,"30":-0.4598069190979004,"31":-0.16206461191177368,"32":0.048547565937042236}},"28":{"bias":0.23617571592330933,"weights":{"0":-0.2585141956806183,"1":0.35436874628067017,"2":-0.10695464164018631,"3":0.5513029098510742,"4":0.43334975838661194,"5":0.1582450270652771,"6":0.46997329592704773,"7":0.959324836730957,"8":0.27994677424430847,"9":-0.23220352828502655,"10":0.3931557834148407,"11":0.5186557769775391,"12":-0.07156785577535629,"13":-0.21171914041042328,"14":0.2755119800567627,"15":0.02559106983244419,"16":-0.16795183718204498,"17":-0.19094187021255493,"18":0.07464491575956345,"19":-0.15271079540252686,"20":-0.01564120128750801,"21":-0.4191897511482239,"22":0.018837977200746536,"23":-0.04198930040001869,"24":0.108702652156353,"25":0.09620910882949829,"26":-0.5079758763313293,"27":-0.36661964654922485,"28":-0.17993977665901184,"29":-0.5423524379730225,"30":-0.6631880402565002,"31":-0.9855251908302307,"32":-0.513775646686554}},"29":{"bias":-0.18488426506519318,"weights":{"0":-0.05822364613413811,"1":0.13403353095054626,"2":0.25752535462379456,"3":0.3164600431919098,"4":0.1135239452123642,"5":-0.020221460610628128,"6":0.023815348744392395,"7":0.11916443705558777,"8":0.009176746010780334,"9":-0.12628799676895142,"10":0.007833327166736126,"11":0.1638311743736267,"12":-0.12331549823284149,"13":0.14821486175060272,"14":-0.0961950272321701,"15":0.042442817240953445,"16":-0.09537765383720398,"17":0.020357225090265274,"18":-0.12127280235290527,"19":-0.22186030447483063,"20":0.01287071406841278,"21":-0.04360334947705269,"22":-0.0961700975894928,"23":0.06693628430366516,"24":-0.19674138724803925,"25":-0.16740314662456512,"26":-0.10798833519220352,"27":-0.09193620830774307,"28":-0.05497326701879501,"29":0.06617482751607895,"30":-0.2336328625679016,"31":-0.10061574727296829,"32":0.10606573522090912}},"30":{"bias":5.742105960845947,"weights":{"0":-0.01031015906482935,"1":-3.3797976970672607,"2":-3.596500873565674,"3":-0.27343645691871643,"4":-1.651980996131897,"5":-0.14139805734157562,"6":-0.3878312110900879,"7":-0.06587526947259903,"8":-0.10941993445158005,"9":0.651898980140686,"10":-0.3136647939682007,"11":0.1831207424402237,"12":-0.25807464122772217,"13":0.7230592370033264,"14":-0.24180176854133606,"15":0.3370625078678131,"16":-0.17395731806755066,"17":-0.0851786881685257,"18":0.2491445541381836,"19":-0.10050515830516815,"20":-0.122751384973526,"21":-0.11406289041042328,"22":0.19007030129432678,"23":-0.2138848900794983,"24":-0.14493265748023987,"25":-0.20914247632026672,"26":-0.30701494216918945,"27":-0.2350781112909317,"28":-0.32829442620277405,"29":-0.059118859469890594,"30":-0.5385409593582153,"31":-0.46243757009506226,"32":-0.37812894582748413}},"31":{"bias":0.10410138219594955,"weights":{"0":-0.1469944715499878,"1":0.09622355550527573,"2":-0.10057999193668365,"3":-0.030877873301506042,"4":0.18639151751995087,"5":0.061292219907045364,"6":-0.11847127228975296,"7":0.10111770778894424,"8":0.11553232371807098,"9":-0.2022940218448639,"10":-0.10847602784633636,"11":-0.0005375109612941742,"12":-0.1385372281074524,"13":-0.11367566883563995,"14":-0.041412584483623505,"15":0.005087844096124172,"16":-0.10634062439203262,"17":-0.058789703994989395,"18":0.09546370804309845,"19":0.1093260794878006,"20":0.056100521236658096,"21":0.12442447990179062,"22":0.13384278118610382,"23":0.0968359112739563,"24":-0.21304722130298615,"25":-0.1381031572818756,"26":-0.028933512046933174,"27":0.06315676867961884,"28":0.018283899873495102,"29":-0.03031344711780548,"30":-0.07211758196353912,"31":-0.17077067494392395,"32":-0.17572590708732605}},"32":{"bias":-0.09896053373813629,"weights":{"0":-0.0683421939611435,"1":0.22506408393383026,"2":0.23990999162197113,"3":-0.23083597421646118,"4":-0.44751593470573425,"5":-0.48091810941696167,"6":0.22888165712356567,"7":0.49513861536979675,"8":-0.6756455898284912,"9":-0.11209999024868011,"10":-0.24507245421409607,"11":0.0906563550233841,"12":-0.28705304861068726,"13":-0.3734518885612488,"14":-0.323557049036026,"15":0.10260257124900818,"16":-0.22716477513313293,"17":-0.19923283159732819,"18":0.014080490916967392,"19":0.24368040263652802,"20":0.013054276816546917,"21":-0.4559941291809082,"22":0.08260069787502289,"23":0.47482234239578247,"24":0.42668187618255615,"25":-0.5755655169487,"26":0.8639505505561829,"27":0.6240331530570984,"28":0.6122341752052307,"29":0.7332766056060791,"30":-0.6481665968894958,"31":-0.0395813062787056,"32":-0.17094573378562927}},"33":{"bias":-0.18097367882728577,"weights":{"0":0.023352423682808876,"1":-0.17755088210105896,"2":0.1715090423822403,"3":0.0431656576693058,"4":-0.01814250834286213,"5":0.05669929087162018,"6":0.19195552170276642,"7":-0.05117654800415039,"8":0.1468057930469513,"9":-0.15936505794525146,"10":-0.16931845247745514,"11":0.19114656746387482,"12":0.11667733639478683,"13":-0.10196046531200409,"14":-0.15749549865722656,"15":-0.1207568570971489,"16":-0.15497396886348724,"17":0.07930643856525421,"18":0.17359629273414612,"19":-0.06692299991846085,"20":-0.16273047029972076,"21":0.095098115503788,"22":-0.1337629109621048,"23":-0.10224863886833191,"24":-0.12266482412815094,"25":-0.09579990804195404,"26":-0.032982438802719116,"27":-0.02542085573077202,"28":0.024477506056427956,"29":-0.030645295977592468,"30":-0.172732874751091,"31":-0.005330991465598345,"32":0.006950326729565859}},"34":{"bias":-9.82432746887207,"weights":{"0":-0.002388864988461137,"1":0.4136701822280884,"2":0.4537264406681061,"3":0.4973055124282837,"4":0.48051559925079346,"5":0.2702469229698181,"6":0.3731907606124878,"7":0.2886551320552826,"8":0.5257645845413208,"9":0.49042245745658875,"10":0.4966895282268524,"11":0.3203217089176178,"12":0.45116010308265686,"13":0.2315412312746048,"14":0.21648868918418884,"15":0.34604060649871826,"16":0.6795201897621155,"17":0.031886596232652664,"18":0.31617146730422974,"19":0.7017008662223816,"20":0.19407811760902405,"21":0.1373407393693924,"22":0.27132076025009155,"23":0.7409980893135071,"24":0.5512522459030151,"25":0.25796833634376526,"26":1.1945582628250122,"27":0.5888215899467468,"28":0.2778702974319458,"29":0.3602198660373688,"30":0.4668256938457489,"31":3.8195960521698,"32":3.450101852416992}},"35":{"bias":0.051201656460762024,"weights":{"0":0.09584173560142517,"1":-0.0944148451089859,"2":-0.16323760151863098,"3":-0.07547958195209503,"4":-0.17328903079032898,"5":-0.05520060285925865,"6":0.1853698045015335,"7":-0.0791965052485466,"8":-0.09443061798810959,"9":-0.09374161809682846,"10":0.022356698289513588,"11":-0.09673415869474411,"12":0.18023566901683807,"13":0.10485932976007462,"14":0.0788133516907692,"15":-0.000907252891920507,"16":0.039297182112932205,"17":-0.18299199640750885,"18":-0.09197372943162918,"19":-0.055143363773822784,"20":-0.19720163941383362,"21":-0.13263408839702606,"22":0.06936772167682648,"23":0.06111133471131325,"24":0.006718885153532028,"25":-0.16091282665729523,"26":-0.11493830382823944,"27":0.14381898939609528,"28":-0.06701334565877914,"29":0.13725537061691284,"30":0.10440151393413544,"31":-0.020425451919436455,"32":0.021546216681599617}}},{"0":{"bias":0.05186445266008377,"weights":{"0":0.13238784670829773,"1":-0.033473897725343704,"2":0.04957747086882591,"3":0.18541455268859863,"4":0.12046156078577042,"5":-1.096940517425537,"6":-0.1314694732427597,"7":0.0012013234663754702,"8":-0.012244639918208122,"9":0.1831352412700653,"10":0.17778773605823517,"11":0.7546941637992859,"12":-0.4630589187145233,"13":-0.29401665925979614,"14":-0.09917765110731125,"15":-0.02729724533855915,"16":-0.18028482794761658,"17":0.31063365936279297,"18":-0.4757750332355499,"19":-0.3627501130104065,"20":0.2816036641597748,"21":0.3847816288471222,"22":-0.27862370014190674,"23":0.25329044461250305,"24":-0.297639936208725,"25":-0.2230992615222931,"26":0.12489736080169678,"27":0.19154316186904907,"28":0.1832980513572693,"29":0.13119609653949738,"30":0.1726779043674469,"31":-0.09397575259208679,"32":0.08048804849386215,"33":0.05343638360500336,"34":-0.32913997769355774,"35":0.14660006761550903}},"1":{"bias":-3.001168727874756,"weights":{"0":-0.05584514141082764,"1":0.123587965965271,"2":-0.19376938045024872,"3":-0.4179916977882385,"4":-0.050550349056720734,"5":-0.40562704205513,"6":0.025978177785873413,"7":-0.03009754605591297,"8":0.0030664531514048576,"9":0.13682003319263458,"10":-0.7749854326248169,"11":-0.730252742767334,"12":-0.7214789390563965,"13":-0.20305617153644562,"14":-0.00528914388269186,"15":0.0696951225399971,"16":0.08377652615308762,"17":-0.2859760820865631,"18":0.7549058198928833,"19":1.3818641901016235,"20":-0.25835877656936646,"21":-0.1838107407093048,"22":-0.34971925616264343,"23":-0.24137477576732635,"24":0.7128145694732666,"25":0.08963687717914581,"26":0.13690420985221863,"27":-0.6745925545692444,"28":-0.23095707595348358,"29":0.240498885512352,"30":-0.8220423460006714,"31":-0.0373869389295578,"32":-0.2975621819496155,"33":-0.04273108392953873,"34":-0.27877432107925415,"35":-0.08845549076795578}},"2":{"bias":1.6954846382141113,"weights":{"0":-0.05543069913983345,"1":0.13988909125328064,"2":-0.13257776200771332,"3":0.23168519139289856,"4":-0.08079232275485992,"5":0.03871118649840355,"6":-0.12831057608127594,"7":0.04417578503489494,"8":-0.0046959021128714085,"9":-0.05543015897274017,"10":0.20352376997470856,"11":-0.8816641569137573,"12":-0.4209567904472351,"13":-0.47012972831726074,"14":-0.03516703099012375,"15":0.07914040982723236,"16":-0.138387992978096,"17":-0.5827676653862,"18":-0.8157402873039246,"19":-0.4248869717121124,"20":-0.5495129227638245,"21":-0.7714312076568604,"22":-0.3133702576160431,"23":-0.15766875445842743,"24":-0.047191321849823,"25":-0.32201457023620605,"26":0.046638909727334976,"27":0.25982698798179626,"28":0.08440623432397842,"29":-0.0565987229347229,"30":0.29610756039619446,"31":-0.03717661648988724,"32":0.05795031413435936,"33":-0.025341175496578217,"34":-0.400263249874115,"35":0.01989843137562275}},"3":{"bias":-0.2221284955739975,"weights":{"0":0.189946711063385,"1":-0.04202727973461151,"2":0.17035289108753204,"3":-0.06104590743780136,"4":-0.1303682178258896,"5":-0.1110338419675827,"6":0.1388723999261856,"7":0.13231264054775238,"8":-0.09529715776443481,"9":-0.018853425979614258,"10":0.09036236256361008,"11":0.09826042503118515,"12":-0.18888019025325775,"13":-0.05586828663945198,"14":-0.173055037856102,"15":-0.1874745637178421,"16":0.10653389990329742,"17":-0.016148772090673447,"18":-0.1552836149930954,"19":0.04724940285086632,"20":0.036040328443050385,"21":-0.07570761442184448,"22":-0.0817231759428978,"23":-0.0849113017320633,"24":-0.13680966198444366,"25":-0.08955526351928711,"26":-0.08040246367454529,"27":-0.16048608720302582,"28":0.14830447733402252,"29":0.17560546100139618,"30":0.06008641794323921,"31":-0.18010826408863068,"32":-0.021808374673128128,"33":0.11462987214326859,"34":0.04002461954951286,"35":-0.18366749584674835}},"4":{"bias":-0.8409774899482727,"weights":{"0":-0.00004612420161720365,"1":-0.1086793765425682,"2":0.0034998359624296427,"3":-0.07170408219099045,"4":0.12854400277137756,"5":0.024848347529768944,"6":0.16008079051971436,"7":-0.05203007906675339,"8":-0.3959830105304718,"9":0.18267804384231567,"10":-0.3672705888748169,"11":0.050784770399332047,"12":0.10877597332000732,"13":-0.1793987900018692,"14":-0.09281959384679794,"15":0.0993896871805191,"16":-0.1352217197418213,"17":-0.059325192123651505,"18":-0.16861121356487274,"19":-0.03652355074882507,"20":-0.02522856742143631,"21":-0.24465198814868927,"22":1.6680620908737183,"23":-0.14983756840229034,"24":-0.18629896640777588,"25":-0.256011962890625,"26":0.12487344443798065,"27":-0.10915923863649368,"28":-0.0514952652156353,"29":0.24512790143489838,"30":-0.395208477973938,"31":-0.15896175801753998,"32":-0.14346614480018616,"33":-0.16433073580265045,"34":0.010277368128299713,"35":-0.1905379444360733}},"5":{"bias":-1.2336398363113403,"weights":{"0":-0.06330103427171707,"1":0.012907305732369423,"2":0.0898887887597084,"3":0.5155272483825684,"4":0.10733771324157715,"5":-0.36870458722114563,"6":0.14689640700817108,"7":-0.12330960482358932,"8":-0.05465206503868103,"9":0.17255601286888123,"10":-0.5645942687988281,"11":-2.2074296474456787,"12":-0.11193322390317917,"13":0.15039843320846558,"14":0.021022506058216095,"15":0.16939660906791687,"16":-0.1678411066532135,"17":-0.17412151396274567,"18":0.6321461796760559,"19":0.5859150886535645,"20":-0.2397346943616867,"21":-0.030387764796614647,"22":-0.048612743616104126,"23":-0.23654191195964813,"24":0.46155011653900146,"25":0.23380383849143982,"26":-0.13508965075016022,"27":-0.45701539516448975,"28":-0.6561608910560608,"29":0.12966100871562958,"30":-0.6701664924621582,"31":0.13641352951526642,"32":-0.5344594717025757,"33":0.05393917113542557,"34":-0.05962661653757095,"35":0.19080393016338348}},"6":{"bias":1.1401276588439941,"weights":{"0":0.021368004381656647,"1":0.19305875897407532,"2":0.04999494552612305,"3":-0.0459272637963295,"4":-0.18754635751247406,"5":0.08651803433895111,"6":0.027260443195700645,"7":0.09454704076051712,"8":-1.1825299263000488,"9":-0.09077713638544083,"10":-0.10090956836938858,"11":-0.29744917154312134,"12":0.0019222076516598463,"13":-0.27369558811187744,"14":-0.13851657509803772,"15":0.006680438760668039,"16":0.1845264732837677,"17":0.0690615326166153,"18":-0.10769829899072647,"19":-0.011466672644019127,"20":0.007797615136951208,"21":0.12029453366994858,"22":-0.17640647292137146,"23":-0.0795360580086708,"24":-0.052015308290719986,"25":-0.5959578156471252,"26":-0.09307660162448883,"27":-0.20734620094299316,"28":-0.07445776462554932,"29":-0.021538427099585533,"30":-0.1797192245721817,"31":-0.1381160169839859,"32":-0.7920058369636536,"33":0.07440495491027832,"34":-0.12232856452465057,"35":-0.05167033150792122}},"7":{"bias":-0.6634002923965454,"weights":{"0":-0.16897492110729218,"1":0.07063131034374237,"2":0.05200611427426338,"3":-0.41880980134010315,"4":0.0019846551585942507,"5":0.018062006682157516,"6":0.06446902453899384,"7":0.0032572001218795776,"8":0.015971442684531212,"9":0.1487703025341034,"10":-0.3109360933303833,"11":-0.13937073945999146,"12":0.30257534980773926,"13":0.29158157110214233,"14":0.09310892969369888,"15":-0.03334410861134529,"16":0.1788252890110016,"17":-0.32096871733665466,"18":0.48880308866500854,"19":0.3574506640434265,"20":-0.5729731321334839,"21":-0.528084933757782,"22":0.23973394930362701,"23":-0.2994482219219208,"24":0.14897343516349792,"25":0.3152441382408142,"26":0.08053376525640488,"27":-0.2841101586818695,"28":-0.19528773427009583,"29":0.09129311889410019,"30":-0.34337180852890015,"31":-0.1381722092628479,"32":-0.21377941966056824,"33":-0.17415471374988556,"34":0.34203431010246277,"35":-0.026556720957159996}},"8":{"bias":-1.8695019483566284,"weights":{"0":0.08247586339712143,"1":0.12435398250818253,"2":-0.11364540457725525,"3":-0.44259119033813477,"4":-0.0873948410153389,"5":0.050524190068244934,"6":0.16934388875961304,"7":0.07570897042751312,"8":0.17651957273483276,"9":0.04153021052479744,"10":-0.34238532185554504,"11":1.311759352684021,"12":0.12069415301084518,"13":0.24562007188796997,"14":-0.18783138692378998,"15":0.19243013858795166,"16":0.18022967875003815,"17":0.04617152363061905,"18":0.654642641544342,"19":0.39612653851509094,"20":-0.1659063994884491,"21":-0.14894911646842957,"22":0.014991380274295807,"23":-0.3005671501159668,"24":0.09631545841693878,"25":0.5037303566932678,"26":0.030234389007091522,"27":-0.27360549569129944,"28":-0.28587374091148376,"29":0.09619522094726562,"30":-0.32935771346092224,"31":0.01540836039930582,"32":-0.059818051755428314,"33":-0.019270282238721848,"34":0.200226828455925,"35":0.19114261865615845}},"9":{"bias":-0.21502836048603058,"weights":{"0":0.04439840838313103,"1":-0.15557697415351868,"2":0.06709026545286179,"3":-0.7214178442955017,"4":-0.04690605401992798,"5":0.28949829936027527,"6":-0.1463601142168045,"7":-0.15128502249717712,"8":-0.10587190091609955,"9":-0.025827834382653236,"10":0.03878971189260483,"11":0.3579418361186981,"12":0.18160952627658844,"13":0.0982002317905426,"14":-0.039481133222579956,"15":-0.05343661829829216,"16":0.09327401965856552,"17":-0.6518632173538208,"18":-0.4789069890975952,"19":0.051213666796684265,"20":0.4715529680252075,"21":-0.10110881179571152,"22":-0.331589937210083,"23":-0.9968570470809937,"24":-0.331566721200943,"25":0.530622124671936,"26":0.08555472642183304,"27":-0.045248255133628845,"28":0.07952013611793518,"29":0.10645868629217148,"30":-0.031522687524557114,"31":0.05946169048547745,"32":0.11583707481622696,"33":0.06986241787672043,"34":0.24421025812625885,"35":0.1790381371974945}},"10":{"bias":-0.2605225443840027,"weights":{"0":0.02033287286758423,"1":-0.09055905789136887,"2":-0.07228754460811615,"3":-0.26620763540267944,"4":0.06688978523015976,"5":-0.37220773100852966,"6":-0.17253093421459198,"7":-0.17125901579856873,"8":0.139670729637146,"9":0.07384008169174194,"10":-0.13796588778495789,"11":-1.8622573614120483,"12":0.509854793548584,"13":0.1223604828119278,"14":-0.0038157750386744738,"15":0.17138773202896118,"16":0.1093989685177803,"17":-0.14510780572891235,"18":0.47112345695495605,"19":0.233309805393219,"20":-0.043434988707304,"21":-0.06092303618788719,"22":0.25603005290031433,"23":-0.09012564271688461,"24":-0.5701451897621155,"25":0.13089942932128906,"26":-0.035943739116191864,"27":-0.3068305552005768,"28":-0.16972602903842926,"29":-0.12473651766777039,"30":-0.17326299846172333,"31":-0.1575184166431427,"32":0.014645733870565891,"33":-0.11557839810848236,"34":0.31439054012298584,"35":0.04212958365678787}},"11":{"bias":-0.6716548800468445,"weights":{"0":0.04189000278711319,"1":0.11307104676961899,"2":-0.15355722606182098,"3":-1.356848120689392,"4":-0.003358206246048212,"5":-0.48987823724746704,"6":0.04155856370925903,"7":-0.0459301695227623,"8":-0.040572088211774826,"9":0.10040093213319778,"10":-0.14624722301959991,"11":-2.16292405128479,"12":-0.09503433853387833,"13":0.06293172389268875,"14":0.07472899556159973,"15":0.15028148889541626,"16":0.19924667477607727,"17":-0.13041549921035767,"18":0.5005373954772949,"19":0.30066218972206116,"20":-0.06987910717725754,"21":0.20959462225437164,"22":-0.05109815299510956,"23":0.13647101819515228,"24":0.47808030247688293,"25":0.3400264382362366,"26":0.07910045981407166,"27":-0.07905307412147522,"28":-0.17837609350681305,"29":-0.042427223175764084,"30":-0.1840803474187851,"31":-0.0034949725959450006,"32":-0.14745241403579712,"33":-0.03479214012622833,"34":-0.10434632003307343,"35":-0.10935789346694946}},"12":{"bias":-0.2019760012626648,"weights":{"0":0.021717604249715805,"1":0.11473295837640762,"2":-0.1758057028055191,"3":0.0066341920755803585,"4":0.1495235115289688,"5":-0.1429867297410965,"6":0.033487819135189056,"7":0.17384883761405945,"8":0.05631495639681816,"9":-0.017684640362858772,"10":-0.07779812067747116,"11":-0.11495786905288696,"12":-0.12133239954710007,"13":-0.07171721756458282,"14":-0.0603962317109108,"15":-0.017905164510011673,"16":-0.013422805815935135,"17":-0.05880395695567131,"18":-0.19345733523368835,"19":0.03202362358570099,"20":0.04540947824716568,"21":0.011973868124186993,"22":-0.07275652140378952,"23":0.0004902405780740082,"24":-0.0027258754707872868,"25":-0.10833130031824112,"26":-0.12336289882659912,"27":-0.17201875150203705,"28":-0.07534679770469666,"29":0.16441939771175385,"30":0.17819368839263916,"31":-0.15221795439720154,"32":-0.14464889466762543,"33":0.13082070648670197,"34":-0.12082739919424057,"35":-0.1377166360616684}},"13":{"bias":0.09448334574699402,"weights":{"0":0.03226935863494873,"1":0.10396801680326462,"2":-0.0941244587302208,"3":-0.0032611130736768246,"4":-0.07592416554689407,"5":0.3806711435317993,"6":0.17145439982414246,"7":-0.12529325485229492,"8":0.06650429964065552,"9":0.13366350531578064,"10":-0.018092786893248558,"11":0.25794875621795654,"12":0.6109131574630737,"13":-0.2973648011684418,"14":0.14169469475746155,"15":-0.0801621526479721,"16":-0.08210930973291397,"17":0.28787633776664734,"18":-0.1977645754814148,"19":-0.22850807011127472,"20":0.1073356345295906,"21":-0.008291546255350113,"22":-0.3919629752635956,"23":0.08933956176042557,"24":-0.2029595673084259,"25":-0.09619168937206268,"26":0.12807400524616241,"27":-0.1628173291683197,"28":-0.15939943492412567,"29":0.1312635838985443,"30":-0.012433244846761227,"31":0.04423383250832558,"32":-0.08838068693876266,"33":0.06095806136727333,"34":-0.208675816655159,"35":-0.14768065512180328}},"14":{"bias":-0.7096003890037537,"weights":{"0":-0.020820507779717445,"1":0.015568772330880165,"2":-0.20296832919120789,"3":1.2325975894927979,"4":0.018023697659373283,"5":-0.15186233818531036,"6":-0.1882152557373047,"7":0.17638473212718964,"8":0.2557605803012848,"9":-0.10248693823814392,"10":-0.03325830399990082,"11":-0.26018092036247253,"12":0.11993089318275452,"13":0.012465550564229488,"14":0.047116879373788834,"15":0.18787150084972382,"16":0.05757885426282883,"17":-0.060289815068244934,"18":0.08361678570508957,"19":-0.09003933519124985,"20":-0.18671029806137085,"21":-0.08784220367670059,"22":0.06623688340187073,"23":-0.15310855209827423,"24":0.1219630241394043,"25":-0.5053102374076843,"26":0.15758763253688812,"27":0.03156938776373863,"28":-0.02913726307451725,"29":0.10818098485469818,"30":0.022352460771799088,"31":0.013718938454985619,"32":-0.09138283878564835,"33":0.19528859853744507,"34":-0.04046931490302086,"35":-0.03444156423211098}},"15":{"bias":-0.32778212428092957,"weights":{"0":-0.11212216317653656,"1":0.0643557533621788,"2":0.059511203318834305,"3":0.2469039410352707,"4":-0.07170413434505463,"5":0.3981265425682068,"6":-0.10056480765342712,"7":0.1977224051952362,"8":-0.06500215828418732,"9":0.056422341614961624,"10":-0.0373968631029129,"11":0.25947973132133484,"12":0.1146164983510971,"13":-0.1182965412735939,"14":-0.0950709655880928,"15":0.11200963705778122,"16":-0.10861051082611084,"17":-0.09812777489423752,"18":-0.03092399798333645,"19":-0.31172996759414673,"20":-0.26254063844680786,"21":0.7383161783218384,"22":0.18659177422523499,"23":-0.4215429425239563,"24":-0.27036985754966736,"25":-0.029031910002231598,"26":0.08612081408500671,"27":-0.3322232663631439,"28":-0.0868459939956665,"29":-0.15597501397132874,"30":-0.015619708225131035,"31":0.10593309998512268,"32":-0.16303516924381256,"33":-0.10075351595878601,"34":0.20334574580192566,"35":-0.07640732079744339}}},{"0":{"bias":-0.25302910804748535,"weights":{"0":-0.3009357750415802,"1":-0.12261257320642471,"2":-0.0895543172955513,"3":-0.02928035520017147,"4":-0.006466138642281294,"5":-0.27223917841911316,"6":-0.132516548037529,"7":-0.13528810441493988,"8":-0.2987216114997864,"9":0.04139261320233345,"10":-0.1392437368631363,"11":0.040404800325632095,"12":0.15701140463352203,"13":0.5008810758590698,"14":-0.026409095153212547,"15":-0.031101584434509277}},"1":{"bias":0.36544269323349,"weights":{"0":-0.5083901882171631,"1":-0.3737080991268158,"2":-0.36148616671562195,"3":0.1590982973575592,"4":-0.5494073629379272,"5":-0.2690853178501129,"6":-0.2378433644771576,"7":0.12581194937229156,"8":-0.23478250205516815,"9":0.2419455349445343,"10":-0.5974674224853516,"11":0.06580569595098495,"12":0.13039839267730713,"13":-0.589684784412384,"14":0.1451205015182495,"15":0.2036813646554947}},"2":{"bias":0.21253523230552673,"weights":{"0":0.4881695806980133,"1":-0.4396321177482605,"2":-0.9446963667869568,"3":0.14572574198246002,"4":0.21246330440044403,"5":-0.1949155479669571,"6":0.14234517514705658,"7":-1.3508021831512451,"8":-0.1827821582555771,"9":-0.013414286077022552,"10":-0.3872922658920288,"11":0.034531209617853165,"12":-0.1506430208683014,"13":0.01426903996616602,"14":-0.10951793193817139,"15":-0.0021271645091474056}},"3":{"bias":-0.19629734754562378,"weights":{"0":-0.6703078150749207,"1":-0.13554701209068298,"2":-0.33236950635910034,"3":0.18646307289600372,"4":0.20288501679897308,"5":-0.02919047884643078,"6":-0.02308788150548935,"7":-0.23185376822948456,"8":-0.2252407968044281,"9":0.09838688373565674,"10":-0.4345831274986267,"11":0.0583249107003212,"12":-0.07011046260595322,"13":0.6217159032821655,"14":0.08797024935483932,"15":0.042247142642736435}},"4":{"bias":-1.0428038835525513,"weights":{"0":0.01427301112562418,"1":0.3283085227012634,"2":-0.10993129014968872,"3":0.15802884101867676,"4":-0.3344466984272003,"5":0.21257121860980988,"6":0.2488064467906952,"7":0.5768729448318481,"8":-1.511172890663147,"9":-0.18572552502155304,"10":0.5710175633430481,"11":0.31140395998954773,"12":-0.08103220909833908,"13":-0.23611468076705933,"14":0.20719432830810547,"15":-0.11021382361650467}},"5":{"bias":0.5384079813957214,"weights":{"0":-0.14888092875480652,"1":-0.18902342021465302,"2":-0.27831706404685974,"3":0.10893914103507996,"4":0.038163334131240845,"5":-0.17199328541755676,"6":-0.009780878201127052,"7":-0.9161453247070312,"8":-0.4013413190841675,"9":-0.2742556035518646,"10":-0.4534755349159241,"11":0.052250564098358154,"12":0.06396341323852539,"13":-0.06497219949960709,"14":-0.49611106514930725,"15":-0.33148491382598877}},"6":{"bias":0.5087282657623291,"weights":{"0":-1.3122148513793945,"1":0.07799118012189865,"2":-0.27763062715530396,"3":-0.09316539764404297,"4":-0.3273414373397827,"5":0.26489752531051636,"6":-0.16349093616008759,"7":0.3414849042892456,"8":-0.5589727759361267,"9":-0.4320645332336426,"10":0.4227030575275421,"11":0.1996774822473526,"12":0.11553493142127991,"13":-0.3958408236503601,"14":0.07860728353261948,"15":-0.29642418026924133}},"7":{"bias":0.11205606162548065,"weights":{"0":-0.31604862213134766,"1":-0.18797354400157928,"2":-0.17081645131111145,"3":0.191791832447052,"4":0.04523199796676636,"5":-0.05563468113541603,"6":-0.05443913862109184,"7":-0.07127860188484192,"8":-0.637434184551239,"9":0.08127535879611969,"10":-0.3105800747871399,"11":-0.8541658520698547,"12":0.037719570100307465,"13":-0.05878705903887749,"14":0.4153587222099304,"15":-0.050503235310316086}},"8":{"bias":0.4446038603782654,"weights":{"0":0.18682776391506195,"1":-0.3502422273159027,"2":-0.9710871577262878,"3":0.1574344038963318,"4":0.2243073731660843,"5":-0.4111174941062927,"6":0.14893266558647156,"7":-0.380894273519516,"8":-0.020661400631070137,"9":-0.10678078979253769,"10":-1.010506272315979,"11":-0.4460741877555847,"12":0.12604530155658722,"13":0.26442164182662964,"14":-0.3422369062900543,"15":-0.03967488557100296}}},{"0":{"bias":0.973802924156189,"weights":{"0":-0.16629643738269806,"1":-0.142348974943161,"2":-0.420011043548584,"3":-0.27780309319496155,"4":0.19296962022781372,"5":-0.16869281232357025,"6":-0.623651921749115,"7":-0.2384577840566635,"8":-0.38791635632514954}}}],"outputLookup":false,"inputLookup":false,"activation":"relu","trainOpts":{"iterations":500,"errorThresh":0.008,"log":true,"logPeriod":1,"learningRate":0.06,"momentum":0.2,"callbackPeriod":10,"timeout":10800000,"beta1":0.9,"beta2":0.999,"epsilon":1e-8}}